[
  { "nodeid": 0, "depth": 0, "split": "f53", "split_condition": 7.5740114e-05, "yes": 1, "no": 2, "missing": 1 , "children": [
    { "nodeid": 1, "depth": 1, "split": "f0", "split_condition": 0.197108477, "yes": 3, "no": 4, "missing": 3 , "children": [
      { "nodeid": 3, "depth": 2, "split": "f80", "split_condition": 0.0114208385, "yes": 7, "no": 8, "missing": 7 , "children": [
        { "nodeid": 7, "depth": 3, "split": "f75", "split_condition": 0.00072761433, "yes": 15, "no": 16, "missing": 15 , "children": [
          { "nodeid": 15, "depth": 4, "split": "f33", "split_condition": 0.00082080625, "yes": 29, "no": 30, "missing": 29 , "children": [
            { "nodeid": 29, "leaf": -0.0965517238 }, 
            { "nodeid": 30, "leaf": 0.215384632 }
          ]}, 
          { "nodeid": 16, "depth": 4, "split": "f164", "split_condition": 0.0259614848, "yes": 31, "no": 32, "missing": 31 , "children": [
            { "nodeid": 31, "depth": 5, "split": "f28", "split_condition": 1.66088721e-05, "yes": 47, "no": 48, "missing": 47 , "children": [
              { "nodeid": 47, "leaf": 0.0235294122 }, 
              { "nodeid": 48, "leaf": 0.356873333 }
            ]}, 
            { "nodeid": 32, "leaf": -0 }
          ]}
        ]}, 
        { "nodeid": 8, "depth": 3, "split": "f3", "split_condition": 0.0110433176, "yes": 17, "no": 18, "missing": 17 , "children": [
          { "nodeid": 17, "leaf": -0.0869565234 }, 
          { "nodeid": 18, "leaf": 0.117647067 }
        ]}
      ]}, 
      { "nodeid": 4, "depth": 2, "split": "f17", "split_condition": 9.84798248e-07, "yes": 9, "no": 10, "missing": 9 , "children": [
        { "nodeid": 9, "depth": 3, "split": "f340", "split_condition": 1.19966455e-06, "yes": 19, "no": 20, "missing": 19 , "children": [
          { "nodeid": 19, "depth": 4, "split": "f341", "split_condition": 1.05091578e-06, "yes": 33, "no": 34, "missing": 33 , "children": [
            { "nodeid": 33, "depth": 5, "split": "f12", "split_condition": 0.00691480888, "yes": 49, "no": 50, "missing": 49 , "children": [
              { "nodeid": 49, "leaf": 0.329618782 }, 
              { "nodeid": 50, "leaf": 0.0595744662 }
            ]}, 
            { "nodeid": 34, "depth": 5, "split": "f100", "split_condition": 0.0753666386, "yes": 51, "no": 52, "missing": 51 , "children": [
              { "nodeid": 51, "leaf": 0.207999989 }, 
              { "nodeid": 52, "leaf": -0.107317083 }
            ]}
          ]}, 
          { "nodeid": 20, "depth": 4, "split": "f2", "split_condition": 8.92339813e-07, "yes": 35, "no": 36, "missing": 35 , "children": [
            { "nodeid": 35, "depth": 5, "split": "f374", "split_condition": 3.07380532e-07, "yes": 53, "no": 54, "missing": 53 , "children": [
              { "nodeid": 53, "leaf": 0.0137931034 }, 
              { "nodeid": 54, "leaf": 0.339622647 }
            ]}, 
            { "nodeid": 36, "depth": 5, "split": "f36", "split_condition": 1.13196711e-05, "yes": 55, "no": 56, "missing": 55 , "children": [
              { "nodeid": 55, "leaf": 0.142857149 }, 
              { "nodeid": 56, "leaf": -0.106122449 }
            ]}
          ]}
        ]}, 
        { "nodeid": 10, "depth": 3, "split": "f100", "split_condition": 0.0360419154, "yes": 21, "no": 22, "missing": 21 , "children": [
          { "nodeid": 21, "depth": 4, "split": "f252", "split_condition": 9.98375981e-07, "yes": 37, "no": 38, "missing": 37 , "children": [
            { "nodeid": 37, "depth": 5, "split": "f99", "split_condition": 0.0141216451, "yes": 57, "no": 58, "missing": 57 , "children": [
              { "nodeid": 57, "leaf": 0.204878047 }, 
              { "nodeid": 58, "leaf": -0.0571428612 }
            ]}, 
            { "nodeid": 38, "depth": 5, "split": "f46", "split_condition": 5.76447965e-05, "yes": 59, "no": 60, "missing": 59 , "children": [
              { "nodeid": 59, "leaf": 0.241825104 }, 
              { "nodeid": 60, "leaf": -0.00677966094 }
            ]}
          ]}, 
          { "nodeid": 22, "depth": 4, "split": "f34", "split_condition": 3.96271275e-07, "yes": 39, "no": 40, "missing": 39 , "children": [
            { "nodeid": 39, "depth": 5, "split": "f515", "split_condition": 9.04856398e-12, "yes": 61, "no": 62, "missing": 61 , "children": [
              { "nodeid": 61, "leaf": -0 }, 
              { "nodeid": 62, "leaf": 0.335999995 }
            ]}, 
            { "nodeid": 40, "depth": 5, "split": "f4", "split_condition": 3.49163798e-07, "yes": 63, "no": 64, "missing": 63 , "children": [
              { "nodeid": 63, "leaf": 0.155102044 }, 
              { "nodeid": 64, "leaf": -0.0522155724 }
            ]}
          ]}
        ]}
      ]}
    ]}, 
    { "nodeid": 2, "depth": 1, "split": "f103", "split_condition": 0.0700027272, "yes": 5, "no": 6, "missing": 5 , "children": [
      { "nodeid": 5, "depth": 2, "split": "f287", "split_condition": 2.04753323e-05, "yes": 11, "no": 12, "missing": 11 , "children": [
        { "nodeid": 11, "depth": 3, "split": "f83", "split_condition": 0.000181790398, "yes": 23, "no": 24, "missing": 23 , "children": [
          { "nodeid": 23, "depth": 4, "split": "f29", "split_condition": 0.00391564379, "yes": 41, "no": 42, "missing": 41 , "children": [
            { "nodeid": 41, "leaf": -0.0705882385 }, 
            { "nodeid": 42, "leaf": 0.24000001 }
          ]}, 
          { "nodeid": 24, "depth": 4, "split": "f2", "split_condition": 0.0219226032, "yes": 43, "no": 44, "missing": 43 , "children": [
            { "nodeid": 43, "depth": 5, "split": "f11", "split_condition": 6.79901802e-07, "yes": 65, "no": 66, "missing": 65 , "children": [
              { "nodeid": 65, "leaf": 0.0487804897 }, 
              { "nodeid": 66, "leaf": -0.118054055 }
            ]}, 
            { "nodeid": 44, "leaf": 0.160000011 }
          ]}
        ]}, 
        { "nodeid": 12, "depth": 3, "split": "f63", "split_condition": 0.000125227583, "yes": 25, "no": 26, "missing": 25 , "children": [
          { "nodeid": 25, "depth": 4, "split": "f73", "split_condition": 0.00202598935, "yes": 45, "no": 46, "missing": 45 , "children": [
            { "nodeid": 45, "leaf": 0.0235294122 }, 
            { "nodeid": 46, "leaf": 0.308571428 }
          ]}, 
          { "nodeid": 26, "leaf": -0.105263166 }
        ]}
      ]}, 
      { "nodeid": 6, "depth": 2, "split": "f180", "split_condition": 6.84383986e-06, "yes": 13, "no": 14, "missing": 13 , "children": [
        { "nodeid": 13, "leaf": -0.0923076943 }, 
        { "nodeid": 14, "depth": 3, "split": "f40", "split_condition": 2.78670996e-06, "yes": 27, "no": 28, "missing": 27 , "children": [
          { "nodeid": 27, "leaf": 0.0235294122 }, 
          { "nodeid": 28, "leaf": 0.348387092 }
        ]}
      ]}
    ]}
  ]},
  { "nodeid": 0, "depth": 0, "split": "f347", "split_condition": 0.00012687745, "yes": 1, "no": 2, "missing": 1 , "children": [
    { "nodeid": 1, "depth": 1, "split": "f136", "split_condition": 0.0159146003, "yes": 3, "no": 4, "missing": 3 , "children": [
      { "nodeid": 3, "depth": 2, "split": "f21", "split_condition": 0.03612547, "yes": 7, "no": 8, "missing": 7 , "children": [
        { "nodeid": 7, "depth": 3, "split": "f23", "split_condition": 0.237693638, "yes": 13, "no": 14, "missing": 13 , "children": [
          { "nodeid": 13, "depth": 4, "split": "f92", "split_condition": 0.510859728, "yes": 25, "no": 26, "missing": 25 , "children": [
            { "nodeid": 25, "depth": 5, "split": "f215", "split_condition": 0.0218109712, "yes": 37, "no": 38, "missing": 37 , "children": [
              { "nodeid": 37, "leaf": -0.120707966 }, 
              { "nodeid": 38, "leaf": 0.117647067 }
            ]}, 
            { "nodeid": 26, "leaf": 0.117647067 }
          ]}, 
          { "nodeid": 14, "leaf": 0.117647067 }
        ]}, 
        { "nodeid": 8, "depth": 3, "split": "f22", "split_condition": 0.010637084, "yes": 15, "no": 16, "missing": 15 , "children": [
          { "nodeid": 15, "depth": 4, "split": "f2", "split_condition": 0.000513906998, "yes": 27, "no": 28, "missing": 27 , "children": [
            { "nodeid": 27, "depth": 5, "split": "f54", "split_condition": 2.17729257e-06, "yes": 39, "no": 40, "missing": 39 , "children": [
              { "nodeid": 39, "leaf": -0.0705882385 }, 
              { "nodeid": 40, "leaf": 0.315789491 }
            ]}, 
            { "nodeid": 28, "leaf": -0.100000001 }
          ]}, 
          { "nodeid": 16, "depth": 4, "split": "f244", "split_condition": 1.98696143e-05, "yes": 29, "no": 30, "missing": 29 , "children": [
            { "nodeid": 29, "depth": 5, "split": "f331", "split_condition": 0.00127049326, "yes": 41, "no": 42, "missing": 41 , "children": [
              { "nodeid": 41, "leaf": -0.1148265 }, 
              { "nodeid": 42, "leaf": 0.0342857167 }
            ]}, 
            { "nodeid": 30, "leaf": 0.117647067 }
          ]}
        ]}
      ]}, 
      { "nodeid": 4, "leaf": 0.160000011 }
    ]}, 
    { "nodeid": 2, "depth": 1, "split": "f95", "split_condition": 1.523022e-05, "yes": 5, "no": 6, "missing": 5 , "children": [
      { "nodeid": 5, "depth": 2, "split": "f92", "split_condition": 0.133653522, "yes": 9, "no": 10, "missing": 9 , "children": [
        { "nodeid": 9, "depth": 3, "split": "f346", "split_condition": 0.000177937269, "yes": 17, "no": 18, "missing": 17 , "children": [
          { "nodeid": 17, "leaf": -0.118918918 }, 
          { "nodeid": 18, "depth": 4, "split": "f0", "split_condition": 0.929543972, "yes": 31, "no": 32, "missing": 31 , "children": [
            { "nodeid": 31, "leaf": -0.0705882385 }, 
            { "nodeid": 32, "leaf": 0.211764723 }
          ]}
        ]}, 
        { "nodeid": 10, "depth": 3, "split": "f88", "split_condition": 0.000387835957, "yes": 19, "no": 20, "missing": 19 , "children": [
          { "nodeid": 19, "depth": 4, "split": "f37", "split_condition": 0.00260760635, "yes": 33, "no": 34, "missing": 33 , "children": [
            { "nodeid": 33, "leaf": 0.326153845 }, 
            { "nodeid": 34, "leaf": 0.0235294122 }
          ]}, 
          { "nodeid": 20, "leaf": -0.0705882385 }
        ]}
      ]}, 
      { "nodeid": 6, "depth": 2, "split": "f127", "split_condition": 1.06118853e-06, "yes": 11, "no": 12, "missing": 11 , "children": [
        { "nodeid": 11, "depth": 3, "split": "f26", "split_condition": 0.00392938731, "yes": 21, "no": 22, "missing": 21 , "children": [
          { "nodeid": 21, "leaf": 0.211764723 }, 
          { "nodeid": 22, "leaf": -0.0705882385 }
        ]}, 
        { "nodeid": 12, "depth": 3, "split": "f106", "split_condition": 0.293196619, "yes": 23, "no": 24, "missing": 23 , "children": [
          { "nodeid": 23, "depth": 4, "split": "f4", "split_condition": 0.0189107321, "yes": 35, "no": 36, "missing": 35 , "children": [
            { "nodeid": 35, "depth": 5, "split": "f5", "split_condition": 1.20022889e-06, "yes": 43, "no": 44, "missing": 43 , "children": [
              { "nodeid": 43, "leaf": 0.0235294122 }, 
              { "nodeid": 44, "leaf": -0.129801318 }
            ]}, 
            { "nodeid": 36, "leaf": 0.0235294122 }
          ]}, 
          { "nodeid": 24, "leaf": 0.0521739125 }
        ]}
      ]}
    ]}
  ]},
  { "nodeid": 0, "depth": 0, "split": "f54", "split_condition": 4.96172142e-05, "yes": 1, "no": 2, "missing": 1 , "children": [
    { "nodeid": 1, "depth": 1, "split": "f46", "split_condition": 5.91274802e-05, "yes": 3, "no": 4, "missing": 3 , "children": [
      { "nodeid": 3, "depth": 2, "split": "f53", "split_condition": 0.000121869278, "yes": 7, "no": 8, "missing": 7 , "children": [
        { "nodeid": 7, "depth": 3, "split": "f58", "split_condition": 0.000154658541, "yes": 15, "no": 16, "missing": 15 , "children": [
          { "nodeid": 15, "depth": 4, "split": "f134", "split_condition": 0.0422458425, "yes": 31, "no": 32, "missing": 31 , "children": [
            { "nodeid": 31, "depth": 5, "split": "f109", "split_condition": 3.3333751e-07, "yes": 51, "no": 52, "missing": 51 , "children": [
              { "nodeid": 51, "leaf": -0.00851063803 }, 
              { "nodeid": 52, "leaf": -0.124734573 }
            ]}, 
            { "nodeid": 32, "leaf": 0.0521739125 }
          ]}, 
          { "nodeid": 16, "leaf": 0.0521739125 }
        ]}, 
        { "nodeid": 8, "depth": 3, "split": "f211", "split_condition": 2.75020138e-05, "yes": 17, "no": 18, "missing": 17 , "children": [
          { "nodeid": 17, "depth": 4, "split": "f52", "split_condition": 0.0011447568, "yes": 33, "no": 34, "missing": 33 , "children": [
            { "nodeid": 33, "leaf": -0.107317083 }, 
            { "nodeid": 34, "leaf": 0.117647067 }
          ]}, 
          { "nodeid": 18, "leaf": 0.315789491 }
        ]}
      ]}, 
      { "nodeid": 4, "depth": 2, "split": "f28", "split_condition": 0.00165760308, "yes": 9, "no": 10, "missing": 9 , "children": [
        { "nodeid": 9, "depth": 3, "split": "f125", "split_condition": 2.36229935e-05, "yes": 19, "no": 20, "missing": 19 , "children": [
          { "nodeid": 19, "depth": 4, "split": "f185", "split_condition": 3.97629901e-06, "yes": 35, "no": 36, "missing": 35 , "children": [
            { "nodeid": 35, "depth": 5, "split": "f100", "split_condition": 0.146306813, "yes": 53, "no": 54, "missing": 53 , "children": [
              { "nodeid": 53, "leaf": 0.376642346 }, 
              { "nodeid": 54, "leaf": 0.109090917 }
            ]}, 
            { "nodeid": 36, "leaf": -0.0705882385 }
          ]}, 
          { "nodeid": 20, "depth": 4, "split": "f1", "split_condition": 0.000600426109, "yes": 37, "no": 38, "missing": 37 , "children": [
            { "nodeid": 37, "leaf": -0.105263166 }, 
            { "nodeid": 38, "leaf": 0.0235294122 }
          ]}
        ]}, 
        { "nodeid": 10, "depth": 3, "split": "f55", "split_condition": 9.66955995e-05, "yes": 21, "no": 22, "missing": 21 , "children": [
          { "nodeid": 21, "depth": 4, "split": "f155", "split_condition": 0.116097257, "yes": 39, "no": 40, "missing": 39 , "children": [
            { "nodeid": 39, "depth": 5, "split": "f61", "split_condition": 8.23119626e-05, "yes": 55, "no": 56, "missing": 55 , "children": [
              { "nodeid": 55, "leaf": -0.102527075 }, 
              { "nodeid": 56, "leaf": 0.211764723 }
            ]}, 
            { "nodeid": 40, "leaf": 0.24000001 }
          ]}, 
          { "nodeid": 22, "depth": 4, "split": "f0", "split_condition": 0.385310352, "yes": 41, "no": 42, "missing": 41 , "children": [
            { "nodeid": 41, "leaf": -0.0705882385 }, 
            { "nodeid": 42, "leaf": 0.289655179 }
          ]}
        ]}
      ]}
    ]}, 
    { "nodeid": 2, "depth": 1, "split": "f62", "split_condition": 6.60892401e-05, "yes": 5, "no": 6, "missing": 5 , "children": [
      { "nodeid": 5, "depth": 2, "split": "f117", "split_condition": 0.00767464563, "yes": 11, "no": 12, "missing": 11 , "children": [
        { "nodeid": 11, "depth": 3, "split": "f175", "split_condition": 3.30308394e-05, "yes": 23, "no": 24, "missing": 23 , "children": [
          { "nodeid": 23, "depth": 4, "split": "f65", "split_condition": 0.00796878897, "yes": 43, "no": 44, "missing": 43 , "children": [
            { "nodeid": 43, "depth": 5, "split": "f146", "split_condition": 8.68128382e-07, "yes": 57, "no": 58, "missing": 57 , "children": [
              { "nodeid": 57, "leaf": 0.0857142881 }, 
              { "nodeid": 58, "leaf": 0.3457627 }
            ]}, 
            { "nodeid": 44, "leaf": -0.0869565234 }
          ]}, 
          { "nodeid": 24, "leaf": -0.100000001 }
        ]}, 
        { "nodeid": 12, "depth": 3, "split": "f28", "split_condition": 0.00319950934, "yes": 25, "no": 26, "missing": 25 , "children": [
          { "nodeid": 25, "depth": 4, "split": "f243", "split_condition": 2.58794671e-06, "yes": 45, "no": 46, "missing": 45 , "children": [
            { "nodeid": 45, "depth": 5, "split": "f239", "split_condition": 8.91390982e-07, "yes": 59, "no": 60, "missing": 59 , "children": [
              { "nodeid": 59, "leaf": -0.0173913054 }, 
              { "nodeid": 60, "leaf": 0.354929566 }
            ]}, 
            { "nodeid": 46, "depth": 5, "split": "f2", "split_condition": 0.000132176996, "yes": 61, "no": 62, "missing": 61 , "children": [
              { "nodeid": 61, "leaf": 0.117647067 }, 
              { "nodeid": 62, "leaf": -0.0923076943 }
            ]}
          ]}, 
          { "nodeid": 26, "depth": 4, "split": "f61", "split_condition": 0.000123186153, "yes": 47, "no": 48, "missing": 47 , "children": [
            { "nodeid": 47, "depth": 5, "split": "f356", "split_condition": 1.91990621e-05, "yes": 63, "no": 64, "missing": 63 , "children": [
              { "nodeid": 63, "leaf": -0.109387755 }, 
              { "nodeid": 64, "leaf": 0.121739127 }
            ]}, 
            { "nodeid": 48, "leaf": 0.24000001 }
          ]}
        ]}
      ]}, 
      { "nodeid": 6, "depth": 2, "split": "f124", "split_condition": 0.0222874694, "yes": 13, "no": 14, "missing": 13 , "children": [
        { "nodeid": 13, "depth": 3, "split": "f273", "split_condition": 0.000182821503, "yes": 27, "no": 28, "missing": 27 , "children": [
          { "nodeid": 27, "depth": 4, "split": "f361", "split_condition": 1.24371209e-05, "yes": 49, "no": 50, "missing": 49 , "children": [
            { "nodeid": 49, "depth": 5, "split": "f23", "split_condition": 2.76843991e-07, "yes": 65, "no": 66, "missing": 65 , "children": [
              { "nodeid": 65, "leaf": 0.179310352 }, 
              { "nodeid": 66, "leaf": 0.390794009 }
            ]}, 
            { "nodeid": 50, "depth": 5, "split": "f108", "split_condition": 0.11292807, "yes": 67, "no": 68, "missing": 67 , "children": [
              { "nodeid": 67, "leaf": 0.27692309 }, 
              { "nodeid": 68, "leaf": -0.0705882385 }
            ]}
          ]}, 
          { "nodeid": 28, "leaf": 0.0235294122 }
        ]}, 
        { "nodeid": 14, "depth": 3, "split": "f6", "split_condition": 0.00146471383, "yes": 29, "no": 30, "missing": 29 , "children": [
          { "nodeid": 29, "leaf": -0.0800000057 }, 
          { "nodeid": 30, "leaf": 0.211764723 }
        ]}
      ]}
    ]}
  ]},
  { "nodeid": 0, "depth": 0, "split": "f47", "split_condition": 1.89669863e-05, "yes": 1, "no": 2, "missing": 1 , "children": [
    { "nodeid": 1, "depth": 1, "split": "f17", "split_condition": 1.4588828e-05, "yes": 3, "no": 4, "missing": 3 , "children": [
      { "nodeid": 3, "depth": 2, "split": "f12", "split_condition": 0.00622328091, "yes": 7, "no": 8, "missing": 7 , "children": [
        { "nodeid": 7, "depth": 3, "split": "f2", "split_condition": 3.12925549e-05, "yes": 15, "no": 16, "missing": 15 , "children": [
          { "nodeid": 15, "depth": 4, "split": "f100", "split_condition": 0.126809686, "yes": 29, "no": 30, "missing": 29 , "children": [
            { "nodeid": 29, "depth": 5, "split": "f12", "split_condition": 3.75052622e-07, "yes": 53, "no": 54, "missing": 53 , "children": [
              { "nodeid": 53, "leaf": -0.0210526325 }, 
              { "nodeid": 54, "leaf": -0.129870132 }
            ]}, 
            { "nodeid": 30, "depth": 5, "split": "f4", "split_condition": 3.26474037e-05, "yes": 55, "no": 56, "missing": 55 , "children": [
              { "nodeid": 55, "leaf": 0.098113209 }, 
              { "nodeid": 56, "leaf": -0.116923086 }
            ]}
          ]}, 
          { "nodeid": 16, "depth": 4, "split": "f513", "split_condition": 5.3270162e-07, "yes": 31, "no": 32, "missing": 31 , "children": [
            { "nodeid": 31, "depth": 5, "split": "f38", "split_condition": 7.46513933e-06, "yes": 57, "no": 58, "missing": 57 , "children": [
              { "nodeid": 57, "leaf": 0.194285721 }, 
              { "nodeid": 58, "leaf": -0.0830188692 }
            ]}, 
            { "nodeid": 32, "depth": 5, "split": "f5", "split_condition": 0.0145902028, "yes": 59, "no": 60, "missing": 59 , "children": [
              { "nodeid": 59, "leaf": -0.0716763064 }, 
              { "nodeid": 60, "leaf": 0.160000011 }
            ]}
          ]}
        ]}, 
        { "nodeid": 8, "depth": 3, "split": "f54", "split_condition": 3.73304056e-06, "yes": 17, "no": 18, "missing": 17 , "children": [
          { "nodeid": 17, "depth": 4, "split": "f288", "split_condition": 4.60420722e-07, "yes": 33, "no": 34, "missing": 33 , "children": [
            { "nodeid": 33, "depth": 5, "split": "f85", "split_condition": 0.00835346617, "yes": 61, "no": 62, "missing": 61 , "children": [
              { "nodeid": 61, "leaf": 0.0521739125 }, 
              { "nodeid": 62, "leaf": 0.358441561 }
            ]}, 
            { "nodeid": 34, "leaf": -0.0705882385 }
          ]}, 
          { "nodeid": 18, "depth": 4, "split": "f13", "split_condition": 0.00865651853, "yes": 35, "no": 36, "missing": 35 , "children": [
            { "nodeid": 35, "depth": 5, "split": "f2", "split_condition": 0.000292200333, "yes": 63, "no": 64, "missing": 63 , "children": [
              { "nodeid": 63, "leaf": 0.0235294122 }, 
              { "nodeid": 64, "leaf": 0.211764723 }
            ]}, 
            { "nodeid": 36, "leaf": -0.113207541 }
          ]}
        ]}
      ]}, 
      { "nodeid": 4, "depth": 2, "split": "f62", "split_condition": 2.30945843e-05, "yes": 9, "no": 10, "missing": 9 , "children": [
        { "nodeid": 9, "depth": 3, "split": "f100", "split_condition": 0.0360419154, "yes": 19, "no": 20, "missing": 19 , "children": [
          { "nodeid": 19, "depth": 4, "split": "f227", "split_condition": 6.92293725e-07, "yes": 37, "no": 38, "missing": 37 , "children": [
            { "nodeid": 37, "depth": 5, "split": "f514", "split_condition": 4.59091598e-10, "yes": 65, "no": 66, "missing": 65 , "children": [
              { "nodeid": 65, "leaf": 0.28672567 }, 
              { "nodeid": 66, "leaf": 0.0279069785 }
            ]}, 
            { "nodeid": 38, "depth": 5, "split": "f193", "split_condition": 0.000750967767, "yes": 67, "no": 68, "missing": 67 , "children": [
              { "nodeid": 67, "leaf": -0.0629441664 }, 
              { "nodeid": 68, "leaf": 0.218181834 }
            ]}
          ]}, 
          { "nodeid": 20, "depth": 4, "split": "f146", "split_condition": 0.0144245178, "yes": 39, "no": 40, "missing": 39 , "children": [
            { "nodeid": 39, "depth": 5, "split": "f257", "split_condition": 1.17443178e-05, "yes": 69, "no": 70, "missing": 69 , "children": [
              { "nodeid": 69, "leaf": 0.220320851 }, 
              { "nodeid": 70, "leaf": 0.330956846 }
            ]}, 
            { "nodeid": 40, "depth": 5, "split": "f133", "split_condition": 0.00126941362, "yes": 71, "no": 72, "missing": 71 , "children": [
              { "nodeid": 71, "leaf": -0.077922076 }, 
              { "nodeid": 72, "leaf": 0.197183102 }
            ]}
          ]}
        ]}, 
        { "nodeid": 10, "depth": 3, "split": "f16", "split_condition": 9.29686867e-05, "yes": 21, "no": 22, "missing": 21 , "children": [
          { "nodeid": 21, "leaf": -0.121348314 }, 
          { "nodeid": 22, "leaf": 0.0235294122 }
        ]}
      ]}
    ]}, 
    { "nodeid": 2, "depth": 1, "split": "f55", "split_condition": 4.22171288e-05, "yes": 5, "no": 6, "missing": 5 , "children": [
      { "nodeid": 5, "depth": 2, "split": "f118", "split_condition": 0.00022605159, "yes": 11, "no": 12, "missing": 11 , "children": [
        { "nodeid": 11, "depth": 3, "split": "f45", "split_condition": 1.41214723e-05, "yes": 23, "no": 24, "missing": 23 , "children": [
          { "nodeid": 23, "depth": 4, "split": "f161", "split_condition": 5.50560708e-06, "yes": 41, "no": 42, "missing": 41 , "children": [
            { "nodeid": 41, "leaf": 0.25 }, 
            { "nodeid": 42, "depth": 5, "split": "f30", "split_condition": 9.62980357e-06, "yes": 73, "no": 74, "missing": 73 , "children": [
              { "nodeid": 73, "leaf": 0.117647067 }, 
              { "nodeid": 74, "leaf": -0.115254238 }
            ]}
          ]}, 
          { "nodeid": 24, "depth": 4, "split": "f155", "split_condition": 5.40061649e-07, "yes": 43, "no": 44, "missing": 43 , "children": [
            { "nodeid": 43, "leaf": 0.117647067 }, 
            { "nodeid": 44, "depth": 5, "split": "f352", "split_condition": 2.67933751e-06, "yes": 75, "no": 76, "missing": 75 , "children": [
              { "nodeid": 75, "leaf": -0.129870132 }, 
              { "nodeid": 76, "leaf": -0.0114285713 }
            ]}
          ]}
        ]}, 
        { "nodeid": 12, "depth": 3, "split": "f62", "split_condition": 1.44660798e-05, "yes": 25, "no": 26, "missing": 25 , "children": [
          { "nodeid": 25, "depth": 4, "split": "f263", "split_condition": 0.000690841465, "yes": 45, "no": 46, "missing": 45 , "children": [
            { "nodeid": 45, "depth": 5, "split": "f18", "split_condition": 4.38638453e-05, "yes": 77, "no": 78, "missing": 77 , "children": [
              { "nodeid": 77, "leaf": -0.0869565234 }, 
              { "nodeid": 78, "leaf": 0.283636361 }
            ]}, 
            { "nodeid": 46, "depth": 5, "split": "f169", "split_condition": 9.99093936e-06, "yes": 79, "no": 80, "missing": 79 , "children": [
              { "nodeid": 79, "leaf": -0.0830188692 }, 
              { "nodeid": 80, "leaf": 0.211764723 }
            ]}
          ]}, 
          { "nodeid": 26, "depth": 4, "split": "f86", "split_condition": 0.167282403, "yes": 47, "no": 48, "missing": 47 , "children": [
            { "nodeid": 47, "depth": 5, "split": "f3", "split_condition": 0.000209470149, "yes": 81, "no": 82, "missing": 81 , "children": [
              { "nodeid": 81, "leaf": 0.0279069785 }, 
              { "nodeid": 82, "leaf": -0.113868617 }
            ]}, 
            { "nodeid": 48, "depth": 5, "split": "f7", "split_condition": 0.0205869563, "yes": 83, "no": 84, "missing": 83 , "children": [
              { "nodeid": 83, "leaf": 0.27692309 }, 
              { "nodeid": 84, "leaf": 0.0235294122 }
            ]}
          ]}
        ]}
      ]}, 
      { "nodeid": 6, "depth": 2, "split": "f21", "split_condition": 0.142757833, "yes": 13, "no": 14, "missing": 13 , "children": [
        { "nodeid": 13, "depth": 3, "split": "f63", "split_condition": 7.07886511e-06, "yes": 27, "no": 28, "missing": 27 , "children": [
          { "nodeid": 27, "depth": 4, "split": "f119", "split_condition": 1.05655472e-05, "yes": 49, "no": 50, "missing": 49 , "children": [
            { "nodeid": 49, "depth": 5, "split": "f7", "split_condition": 0.00744951284, "yes": 85, "no": 86, "missing": 85 , "children": [
              { "nodeid": 85, "leaf": -0.127272725 }, 
              { "nodeid": 86, "leaf": 0.0235294122 }
            ]}, 
            { "nodeid": 50, "depth": 5, "split": "f18", "split_condition": 0.00233495655, "yes": 87, "no": 88, "missing": 87 , "children": [
              { "nodeid": 87, "leaf": -0.0292682927 }, 
              { "nodeid": 88, "leaf": 0.273684233 }
            ]}
          ]}, 
          { "nodeid": 28, "depth": 4, "split": "f26", "split_condition": 0.0752337277, "yes": 51, "no": 52, "missing": 51 , "children": [
            { "nodeid": 51, "depth": 5, "split": "f283", "split_condition": 1.11736554e-05, "yes": 89, "no": 90, "missing": 89 , "children": [
              { "nodeid": 89, "leaf": -0.126551986 }, 
              { "nodeid": 90, "leaf": 0.0307692327 }
            ]}, 
            { "nodeid": 52, "leaf": 0.0800000057 }
          ]}
        ]}, 
        { "nodeid": 14, "leaf": 0.121739127 }
      ]}
    ]}
  ]},
  { "nodeid": 0, "depth": 0, "split": "f53", "split_condition": 7.5740114e-05, "yes": 1, "no": 2, "missing": 1 , "children": [
    { "nodeid": 1, "depth": 1, "split": "f0", "split_condition": 0.197108477, "yes": 3, "no": 4, "missing": 3 , "children": [
      { "nodeid": 3, "depth": 2, "split": "f20", "split_condition": 0.125063911, "yes": 7, "no": 8, "missing": 7 , "children": [
        { "nodeid": 7, "depth": 3, "split": "f10", "split_condition": 1.79914132e-05, "yes": 15, "no": 16, "missing": 15 , "children": [
          { "nodeid": 15, "depth": 4, "split": "f23", "split_condition": 0.0151064061, "yes": 27, "no": 28, "missing": 27 , "children": [
            { "nodeid": 27, "leaf": 0.151961088 }, 
            { "nodeid": 28, "leaf": -0.0895743966 }
          ]}, 
          { "nodeid": 16, "depth": 4, "split": "f202", "split_condition": 0.00696243905, "yes": 29, "no": 30, "missing": 29 , "children": [
            { "nodeid": 29, "depth": 5, "split": "f142", "split_condition": 0.0759230703, "yes": 47, "no": 48, "missing": 47 , "children": [
              { "nodeid": 47, "leaf": 0.259865999 }, 
              { "nodeid": 48, "leaf": 0.037014991 }
            ]}, 
            { "nodeid": 30, "depth": 5, "split": "f41", "split_condition": 2.94914062e-05, "yes": 49, "no": 50, "missing": 49 , "children": [
              { "nodeid": 49, "leaf": -0.0841193721 }, 
              { "nodeid": 50, "leaf": 0.100081995 }
            ]}
          ]}
        ]}, 
        { "nodeid": 8, "leaf": -0.0809895322 }
      ]}, 
      { "nodeid": 4, "depth": 2, "split": "f17", "split_condition": 9.84798248e-07, "yes": 9, "no": 10, "missing": 9 , "children": [
        { "nodeid": 9, "depth": 3, "split": "f46", "split_condition": 0.000185704936, "yes": 17, "no": 18, "missing": 17 , "children": [
          { "nodeid": 17, "depth": 4, "split": "f11", "split_condition": 0.00480517931, "yes": 31, "no": 32, "missing": 31 , "children": [
            { "nodeid": 31, "depth": 5, "split": "f161", "split_condition": 0.00590449898, "yes": 51, "no": 52, "missing": 51 , "children": [
              { "nodeid": 51, "leaf": 0.209970906 }, 
              { "nodeid": 52, "leaf": -0.0349512696 }
            ]}, 
            { "nodeid": 32, "depth": 5, "split": "f29", "split_condition": 8.87196711e-06, "yes": 53, "no": 54, "missing": 53 , "children": [
              { "nodeid": 53, "leaf": 0.21366623 }, 
              { "nodeid": 54, "leaf": -0.113391437 }
            ]}
          ]}, 
          { "nodeid": 18, "depth": 4, "split": "f15", "split_condition": 0.00616087392, "yes": 33, "no": 34, "missing": 33 , "children": [
            { "nodeid": 33, "leaf": -0.108312152 }, 
            { "nodeid": 34, "leaf": 0.0234422218 }
          ]}
        ]}, 
        { "nodeid": 10, "depth": 3, "split": "f154", "split_condition": 0.00372419297, "yes": 19, "no": 20, "missing": 19 , "children": [
          { "nodeid": 19, "depth": 4, "split": "f322", "split_condition": 1.19435003e-06, "yes": 35, "no": 36, "missing": 35 , "children": [
            { "nodeid": 35, "depth": 5, "split": "f13", "split_condition": 0.0131538305, "yes": 55, "no": 56, "missing": 55 , "children": [
              { "nodeid": 55, "leaf": 0.0587254539 }, 
              { "nodeid": 56, "leaf": -0.12108364 }
            ]}, 
            { "nodeid": 36, "depth": 5, "split": "f354", "split_condition": 1.31757588e-06, "yes": 57, "no": 58, "missing": 57 , "children": [
              { "nodeid": 57, "leaf": -0.10101904 }, 
              { "nodeid": 58, "leaf": 0.00242854096 }
            ]}
          ]}, 
          { "nodeid": 20, "depth": 4, "split": "f266", "split_condition": 1.59343836e-06, "yes": 37, "no": 38, "missing": 37 , "children": [
            { "nodeid": 37, "depth": 5, "split": "f100", "split_condition": 0.133529931, "yes": 59, "no": 60, "missing": 59 , "children": [
              { "nodeid": 59, "leaf": 0.229599148 }, 
              { "nodeid": 60, "leaf": -0.0147380307 }
            ]}, 
            { "nodeid": 38, "depth": 5, "split": "f512", "split_condition": 0.0019682867, "yes": 61, "no": 62, "missing": 61 , "children": [
              { "nodeid": 61, "leaf": -0.0341066979 }, 
              { "nodeid": 62, "leaf": 0.174301192 }
            ]}
          ]}
        ]}
      ]}
    ]}, 
    { "nodeid": 2, "depth": 1, "split": "f103", "split_condition": 0.0700027272, "yes": 5, "no": 6, "missing": 5 , "children": [
      { "nodeid": 5, "depth": 2, "split": "f314", "split_condition": 3.8323642e-06, "yes": 11, "no": 12, "missing": 11 , "children": [
        { "nodeid": 11, "depth": 3, "split": "f365", "split_condition": 0.000128922678, "yes": 21, "no": 22, "missing": 21 , "children": [
          { "nodeid": 21, "depth": 4, "split": "f11", "split_condition": 4.61070613e-06, "yes": 39, "no": 40, "missing": 39 , "children": [
            { "nodeid": 39, "depth": 5, "split": "f30", "split_condition": 0.00106483675, "yes": 63, "no": 64, "missing": 63 , "children": [
              { "nodeid": 63, "leaf": -0.109549366 }, 
              { "nodeid": 64, "leaf": 0.149692997 }
            ]}, 
            { "nodeid": 40, "depth": 5, "split": "f359", "split_condition": 7.36739166e-05, "yes": 65, "no": 66, "missing": 65 , "children": [
              { "nodeid": 65, "leaf": -0.118911386 }, 
              { "nodeid": 66, "leaf": 0.112547241 }
            ]}
          ]}, 
          { "nodeid": 22, "depth": 4, "split": "f6", "split_condition": 9.39360507e-06, "yes": 41, "no": 42, "missing": 41 , "children": [
            { "nodeid": 41, "leaf": 0.200458199 }, 
            { "nodeid": 42, "leaf": 0.0247334335 }
          ]}
        ]}, 
        { "nodeid": 12, "depth": 3, "split": "f55", "split_condition": 6.01979555e-05, "yes": 23, "no": 24, "missing": 23 , "children": [
          { "nodeid": 23, "depth": 4, "split": "f52", "split_condition": 0.00159668317, "yes": 43, "no": 44, "missing": 43 , "children": [
            { "nodeid": 43, "leaf": 0.274385303 }, 
            { "nodeid": 44, "leaf": -0.0151650878 }
          ]}, 
          { "nodeid": 24, "depth": 4, "split": "f4", "split_condition": 0.0125866048, "yes": 45, "no": 46, "missing": 45 , "children": [
            { "nodeid": 45, "depth": 5, "split": "f232", "split_condition": 1.84560611e-06, "yes": 67, "no": 68, "missing": 67 , "children": [
              { "nodeid": 67, "leaf": -0.119547404 }, 
              { "nodeid": 68, "leaf": 0.0293707382 }
            ]}, 
            { "nodeid": 46, "leaf": 0.178934962 }
          ]}
        ]}
      ]}, 
      { "nodeid": 6, "depth": 2, "split": "f180", "split_condition": 6.84383986e-06, "yes": 13, "no": 14, "missing": 13 , "children": [
        { "nodeid": 13, "leaf": -0.0879218206 }, 
        { "nodeid": 14, "depth": 3, "split": "f42", "split_condition": 0.000804364914, "yes": 25, "no": 26, "missing": 25 , "children": [
          { "nodeid": 25, "leaf": 0.0121065658 }, 
          { "nodeid": 26, "leaf": 0.261817247 }
        ]}
      ]}
    ]}
  ]},
  { "nodeid": 0, "depth": 0, "split": "f347", "split_condition": 0.00012687745, "yes": 1, "no": 2, "missing": 1 , "children": [
    { "nodeid": 1, "depth": 1, "split": "f136", "split_condition": 0.0159146003, "yes": 3, "no": 4, "missing": 3 , "children": [
      { "nodeid": 3, "depth": 2, "split": "f21", "split_condition": 0.03612547, "yes": 7, "no": 8, "missing": 7 , "children": [
        { "nodeid": 7, "depth": 3, "split": "f248", "split_condition": 4.80542258e-06, "yes": 13, "no": 14, "missing": 13 , "children": [
          { "nodeid": 13, "depth": 4, "split": "f223", "split_condition": 0.00820377562, "yes": 25, "no": 26, "missing": 25 , "children": [
            { "nodeid": 25, "depth": 5, "split": "f298", "split_condition": 9.91176239e-06, "yes": 37, "no": 38, "missing": 37 , "children": [
              { "nodeid": 37, "leaf": -0.114301674 }, 
              { "nodeid": 38, "leaf": 0.116764717 }
            ]}, 
            { "nodeid": 26, "leaf": 0.118641868 }
          ]}, 
          { "nodeid": 14, "leaf": 0.130731031 }
        ]}, 
        { "nodeid": 8, "depth": 3, "split": "f22", "split_condition": 0.012442112, "yes": 15, "no": 16, "missing": 15 , "children": [
          { "nodeid": 15, "depth": 4, "split": "f201", "split_condition": 8.68196912e-06, "yes": 27, "no": 28, "missing": 27 , "children": [
            { "nodeid": 27, "depth": 5, "split": "f114", "split_condition": 0.00255292724, "yes": 39, "no": 40, "missing": 39 , "children": [
              { "nodeid": 39, "leaf": -0.0666692257 }, 
              { "nodeid": 40, "leaf": 0.244624421 }
            ]}, 
            { "nodeid": 28, "leaf": -0.0999728814 }
          ]}, 
          { "nodeid": 16, "depth": 4, "split": "f244", "split_condition": 1.98696143e-05, "yes": 29, "no": 30, "missing": 29 , "children": [
            { "nodeid": 29, "depth": 5, "split": "f21", "split_condition": 0.0389539227, "yes": 41, "no": 42, "missing": 41 , "children": [
              { "nodeid": 41, "leaf": 0.00706337159 }, 
              { "nodeid": 42, "leaf": -0.113547005 }
            ]}, 
            { "nodeid": 30, "leaf": 0.106808044 }
          ]}
        ]}
      ]}, 
      { "nodeid": 4, "leaf": 0.137901172 }
    ]}, 
    { "nodeid": 2, "depth": 1, "split": "f138", "split_condition": 3.4538738e-05, "yes": 5, "no": 6, "missing": 5 , "children": [
      { "nodeid": 5, "depth": 2, "split": "f92", "split_condition": 0.138333276, "yes": 9, "no": 10, "missing": 9 , "children": [
        { "nodeid": 9, "depth": 3, "split": "f58", "split_condition": 8.29093042e-05, "yes": 17, "no": 18, "missing": 17 , "children": [
          { "nodeid": 17, "leaf": -0.116053067 }, 
          { "nodeid": 18, "depth": 4, "split": "f57", "split_condition": 4.17555966e-05, "yes": 31, "no": 32, "missing": 31 , "children": [
            { "nodeid": 31, "leaf": 0.220811293 }, 
            { "nodeid": 32, "leaf": -0.0861012042 }
          ]}
        ]}, 
        { "nodeid": 10, "depth": 3, "split": "f169", "split_condition": 1.34577454e-06, "yes": 19, "no": 20, "missing": 19 , "children": [
          { "nodeid": 19, "depth": 4, "split": "f512", "split_condition": 0.00202960288, "yes": 33, "no": 34, "missing": 33 , "children": [
            { "nodeid": 33, "leaf": 0.268160731 }, 
            { "nodeid": 34, "leaf": 0.0184754189 }
          ]}, 
          { "nodeid": 20, "leaf": -0.0648420006 }
        ]}
      ]}, 
      { "nodeid": 6, "depth": 2, "split": "f79", "split_condition": 1.96796555e-06, "yes": 11, "no": 12, "missing": 11 , "children": [
        { "nodeid": 11, "depth": 3, "split": "f9", "split_condition": 0.000587644172, "yes": 21, "no": 22, "missing": 21 , "children": [
          { "nodeid": 21, "leaf": 0.182212725 }, 
          { "nodeid": 22, "leaf": -0.0663560703 }
        ]}, 
        { "nodeid": 12, "depth": 3, "split": "f199", "split_condition": 0.0300069489, "yes": 23, "no": 24, "missing": 23 , "children": [
          { "nodeid": 23, "depth": 4, "split": "f297", "split_condition": 3.60155673e-06, "yes": 35, "no": 36, "missing": 35 , "children": [
            { "nodeid": 35, "leaf": -0.124869041 }, 
            { "nodeid": 36, "leaf": 0.0308088455 }
          ]}, 
          { "nodeid": 24, "leaf": 0.031097604 }
        ]}
      ]}
    ]}
  ]},
  { "nodeid": 0, "depth": 0, "split": "f54", "split_condition": 4.96172142e-05, "yes": 1, "no": 2, "missing": 1 , "children": [
    { "nodeid": 1, "depth": 1, "split": "f46", "split_condition": 5.91274802e-05, "yes": 3, "no": 4, "missing": 3 , "children": [
      { "nodeid": 3, "depth": 2, "split": "f53", "split_condition": 0.000121869278, "yes": 7, "no": 8, "missing": 7 , "children": [
        { "nodeid": 7, "depth": 3, "split": "f59", "split_condition": 2.99115109e-05, "yes": 15, "no": 16, "missing": 15 , "children": [
          { "nodeid": 15, "depth": 4, "split": "f134", "split_condition": 0.0422458425, "yes": 31, "no": 32, "missing": 31 , "children": [
            { "nodeid": 31, "depth": 5, "split": "f109", "split_condition": 3.3333751e-07, "yes": 53, "no": 54, "missing": 53 , "children": [
              { "nodeid": 53, "leaf": -0.00481489627 }, 
              { "nodeid": 54, "leaf": -0.119401932 }
            ]}, 
            { "nodeid": 32, "leaf": 0.0482959338 }
          ]}, 
          { "nodeid": 16, "depth": 4, "split": "f100", "split_condition": 0.0503921434, "yes": 33, "no": 34, "missing": 33 , "children": [
            { "nodeid": 33, "leaf": 0.16915597 }, 
            { "nodeid": 34, "leaf": -0.0958286449 }
          ]}
        ]}, 
        { "nodeid": 8, "depth": 3, "split": "f211", "split_condition": 2.75020138e-05, "yes": 17, "no": 18, "missing": 17 , "children": [
          { "nodeid": 17, "depth": 4, "split": "f165", "split_condition": 8.29029887e-07, "yes": 35, "no": 36, "missing": 35 , "children": [
            { "nodeid": 35, "leaf": 0.118614092 }, 
            { "nodeid": 36, "leaf": -0.10322012 }
          ]}, 
          { "nodeid": 18, "leaf": 0.242066264 }
        ]}
      ]}, 
      { "nodeid": 4, "depth": 2, "split": "f28", "split_condition": 0.00165760308, "yes": 9, "no": 10, "missing": 9 , "children": [
        { "nodeid": 9, "depth": 3, "split": "f125", "split_condition": 2.36229935e-05, "yes": 19, "no": 20, "missing": 19 , "children": [
          { "nodeid": 19, "depth": 4, "split": "f185", "split_condition": 3.97629901e-06, "yes": 37, "no": 38, "missing": 37 , "children": [
            { "nodeid": 37, "depth": 5, "split": "f108", "split_condition": 0.200823173, "yes": 55, "no": 56, "missing": 55 , "children": [
              { "nodeid": 55, "leaf": 0.262273043 }, 
              { "nodeid": 56, "leaf": -0.00386761548 }
            ]}, 
            { "nodeid": 38, "leaf": -0.0681832358 }
          ]}, 
          { "nodeid": 20, "depth": 4, "split": "f20", "split_condition": 4.35708498e-05, "yes": 39, "no": 40, "missing": 39 , "children": [
            { "nodeid": 39, "leaf": 0.0307322592 }, 
            { "nodeid": 40, "leaf": -0.102046505 }
          ]}
        ]}, 
        { "nodeid": 10, "depth": 3, "split": "f108", "split_condition": 0.0111261019, "yes": 21, "no": 22, "missing": 21 , "children": [
          { "nodeid": 21, "depth": 4, "split": "f2", "split_condition": 0.00435487041, "yes": 41, "no": 42, "missing": 41 , "children": [
            { "nodeid": 41, "leaf": 0.229066879 }, 
            { "nodeid": 42, "leaf": -0.0735583082 }
          ]}, 
          { "nodeid": 22, "depth": 4, "split": "f61", "split_condition": 8.23119626e-05, "yes": 43, "no": 44, "missing": 43 , "children": [
            { "nodeid": 43, "depth": 5, "split": "f34", "split_condition": 0.000314687029, "yes": 57, "no": 58, "missing": 57 , "children": [
              { "nodeid": 57, "leaf": 0.100530565 }, 
              { "nodeid": 58, "leaf": -0.102044322 }
            ]}, 
            { "nodeid": 44, "leaf": 0.20240806 }
          ]}
        ]}
      ]}
    ]}, 
    { "nodeid": 2, "depth": 1, "split": "f28", "split_condition": 0.00664280774, "yes": 5, "no": 6, "missing": 5 , "children": [
      { "nodeid": 5, "depth": 2, "split": "f245", "split_condition": 2.18537261e-05, "yes": 11, "no": 12, "missing": 11 , "children": [
        { "nodeid": 11, "depth": 3, "split": "f325", "split_condition": 0.0223925039, "yes": 23, "no": 24, "missing": 23 , "children": [
          { "nodeid": 23, "depth": 4, "split": "f106", "split_condition": 0.426886469, "yes": 45, "no": 46, "missing": 45 , "children": [
            { "nodeid": 45, "depth": 5, "split": "f13", "split_condition": 0.0593519807, "yes": 59, "no": 60, "missing": 59 , "children": [
              { "nodeid": 59, "leaf": 0.259624451 }, 
              { "nodeid": 60, "leaf": 0.00613213098 }
            ]}, 
            { "nodeid": 46, "depth": 5, "split": "f15", "split_condition": 0.000811497564, "yes": 61, "no": 62, "missing": 61 , "children": [
              { "nodeid": 61, "leaf": -0.0684592724 }, 
              { "nodeid": 62, "leaf": 0.0942008719 }
            ]}
          ]}, 
          { "nodeid": 24, "leaf": -0.0149868149 }
        ]}, 
        { "nodeid": 12, "depth": 3, "split": "f3", "split_condition": 0.000185406112, "yes": 25, "no": 26, "missing": 25 , "children": [
          { "nodeid": 25, "leaf": 0.095684886 }, 
          { "nodeid": 26, "leaf": -0.0910705402 }
        ]}
      ]}, 
      { "nodeid": 6, "depth": 2, "split": "f62", "split_condition": 6.60892401e-05, "yes": 13, "no": 14, "missing": 13 , "children": [
        { "nodeid": 13, "depth": 3, "split": "f47", "split_condition": 0.000280522974, "yes": 27, "no": 28, "missing": 27 , "children": [
          { "nodeid": 27, "depth": 4, "split": "f259", "split_condition": 0.000262304704, "yes": 47, "no": 48, "missing": 47 , "children": [
            { "nodeid": 47, "leaf": -0.126104817 }, 
            { "nodeid": 48, "leaf": 0.10409198 }
          ]}, 
          { "nodeid": 28, "depth": 4, "split": "f117", "split_condition": 0.0289197359, "yes": 49, "no": 50, "missing": 49 , "children": [
            { "nodeid": 49, "depth": 5, "split": "f129", "split_condition": 0.00146077108, "yes": 63, "no": 64, "missing": 63 , "children": [
              { "nodeid": 63, "leaf": 0.207152605 }, 
              { "nodeid": 64, "leaf": -0.0861534327 }
            ]}, 
            { "nodeid": 50, "depth": 5, "split": "f17", "split_condition": 0.000111558344, "yes": 65, "no": 66, "missing": 65 , "children": [
              { "nodeid": 65, "leaf": 0.10734129 }, 
              { "nodeid": 66, "leaf": -0.115298584 }
            ]}
          ]}
        ]}, 
        { "nodeid": 14, "depth": 3, "split": "f84", "split_condition": 0.148621529, "yes": 29, "no": 30, "missing": 29 , "children": [
          { "nodeid": 29, "depth": 4, "split": "f103", "split_condition": 0.0599699244, "yes": 51, "no": 52, "missing": 51 , "children": [
            { "nodeid": 51, "depth": 5, "split": "f141", "split_condition": 0.0126807764, "yes": 67, "no": 68, "missing": 67 , "children": [
              { "nodeid": 67, "leaf": 0.269875199 }, 
              { "nodeid": 68, "leaf": 0.0576407723 }
            ]}, 
            { "nodeid": 52, "leaf": -0.00259915157 }
          ]}, 
          { "nodeid": 30, "leaf": -0.0667336062 }
        ]}
      ]}
    ]}
  ]},
  { "nodeid": 0, "depth": 0, "split": "f47", "split_condition": 2.53393646e-05, "yes": 1, "no": 2, "missing": 1 , "children": [
    { "nodeid": 1, "depth": 1, "split": "f18", "split_condition": 0.000165995516, "yes": 3, "no": 4, "missing": 3 , "children": [
      { "nodeid": 3, "depth": 2, "split": "f267", "split_condition": 3.16221558e-05, "yes": 7, "no": 8, "missing": 7 , "children": [
        { "nodeid": 7, "depth": 3, "split": "f117", "split_condition": 0.00118794199, "yes": 15, "no": 16, "missing": 15 , "children": [
          { "nodeid": 15, "depth": 4, "split": "f137", "split_condition": 0.000411181478, "yes": 31, "no": 32, "missing": 31 , "children": [
            { "nodeid": 31, "depth": 5, "split": "f105", "split_condition": 0.0365650281, "yes": 57, "no": 58, "missing": 57 , "children": [
              { "nodeid": 57, "leaf": -0.114743091 }, 
              { "nodeid": 58, "leaf": 0.113229312 }
            ]}, 
            { "nodeid": 32, "depth": 5, "split": "f161", "split_condition": 0.000388996617, "yes": 59, "no": 60, "missing": 59 , "children": [
              { "nodeid": 59, "leaf": -0.0700826794 }, 
              { "nodeid": 60, "leaf": 0.191860005 }
            ]}
          ]}, 
          { "nodeid": 16, "depth": 4, "split": "f51", "split_condition": 4.97066048e-06, "yes": 33, "no": 34, "missing": 33 , "children": [
            { "nodeid": 33, "depth": 5, "split": "f79", "split_condition": 0.00662801415, "yes": 61, "no": 62, "missing": 61 , "children": [
              { "nodeid": 61, "leaf": 0.00104621379 }, 
              { "nodeid": 62, "leaf": 0.237482712 }
            ]}, 
            { "nodeid": 34, "depth": 5, "split": "f21", "split_condition": 0.00730476435, "yes": 63, "no": 64, "missing": 63 , "children": [
              { "nodeid": 63, "leaf": -0.116533816 }, 
              { "nodeid": 64, "leaf": 0.0772169456 }
            ]}
          ]}
        ]}, 
        { "nodeid": 8, "depth": 3, "split": "f45", "split_condition": 1.31743509e-05, "yes": 17, "no": 18, "missing": 17 , "children": [
          { "nodeid": 17, "depth": 4, "split": "f82", "split_condition": 0.00157830841, "yes": 35, "no": 36, "missing": 35 , "children": [
            { "nodeid": 35, "leaf": -0.0862456113 }, 
            { "nodeid": 36, "depth": 5, "split": "f126", "split_condition": 6.72375904e-07, "yes": 65, "no": 66, "missing": 65 , "children": [
              { "nodeid": 65, "leaf": -0.0747040361 }, 
              { "nodeid": 66, "leaf": 0.253967613 }
            ]}
          ]}, 
          { "nodeid": 18, "leaf": -0.114040725 }
        ]}
      ]}, 
      { "nodeid": 4, "depth": 2, "split": "f62", "split_condition": 2.2879065e-05, "yes": 9, "no": 10, "missing": 9 , "children": [
        { "nodeid": 9, "depth": 3, "split": "f100", "split_condition": 0.0356161408, "yes": 19, "no": 20, "missing": 19 , "children": [
          { "nodeid": 19, "depth": 4, "split": "f76", "split_condition": 0.0256493017, "yes": 37, "no": 38, "missing": 37 , "children": [
            { "nodeid": 37, "depth": 5, "split": "f309", "split_condition": 7.98069436e-07, "yes": 67, "no": 68, "missing": 67 , "children": [
              { "nodeid": 67, "leaf": 0.109672368 }, 
              { "nodeid": 68, "leaf": -0.0723999664 }
            ]}, 
            { "nodeid": 38, "depth": 5, "split": "f30", "split_condition": 0.000130317334, "yes": 69, "no": 70, "missing": 69 , "children": [
              { "nodeid": 69, "leaf": 0.228286028 }, 
              { "nodeid": 70, "leaf": -0.0205080044 }
            ]}
          ]}, 
          { "nodeid": 20, "depth": 4, "split": "f355", "split_condition": 6.3167754e-06, "yes": 39, "no": 40, "missing": 39 , "children": [
            { "nodeid": 39, "depth": 5, "split": "f38", "split_condition": 2.51845413e-05, "yes": 71, "no": 72, "missing": 71 , "children": [
              { "nodeid": 71, "leaf": 0.230821833 }, 
              { "nodeid": 72, "leaf": 0.140222013 }
            ]}, 
            { "nodeid": 40, "depth": 5, "split": "f340", "split_condition": 0.000261037785, "yes": 73, "no": 74, "missing": 73 , "children": [
              { "nodeid": 73, "leaf": -0.0293911695 }, 
              { "nodeid": 74, "leaf": 0.17150633 }
            ]}
          ]}
        ]}, 
        { "nodeid": 10, "depth": 3, "split": "f251", "split_condition": 1.12694343e-05, "yes": 21, "no": 22, "missing": 21 , "children": [
          { "nodeid": 21, "depth": 4, "split": "f317", "split_condition": 2.56710155e-05, "yes": 41, "no": 42, "missing": 41 , "children": [
            { "nodeid": 41, "leaf": -0.121624328 }, 
            { "nodeid": 42, "leaf": 0.108342886 }
          ]}, 
          { "nodeid": 22, "leaf": 0.114605181 }
        ]}
      ]}
    ]}, 
    { "nodeid": 2, "depth": 1, "split": "f55", "split_condition": 4.22171288e-05, "yes": 5, "no": 6, "missing": 5 , "children": [
      { "nodeid": 5, "depth": 2, "split": "f118", "split_condition": 0.000388202781, "yes": 11, "no": 12, "missing": 11 , "children": [
        { "nodeid": 11, "depth": 3, "split": "f28", "split_condition": 0.0470141992, "yes": 23, "no": 24, "missing": 23 , "children": [
          { "nodeid": 23, "depth": 4, "split": "f99", "split_condition": 0.382317364, "yes": 43, "no": 44, "missing": 43 , "children": [
            { "nodeid": 43, "depth": 5, "split": "f196", "split_condition": 0.00864706654, "yes": 75, "no": 76, "missing": 75 , "children": [
              { "nodeid": 75, "leaf": -0.11945194 }, 
              { "nodeid": 76, "leaf": -0.0168306082 }
            ]}, 
            { "nodeid": 44, "leaf": 0.10331364 }
          ]}, 
          { "nodeid": 24, "depth": 4, "split": "f4", "split_condition": 0.000676490716, "yes": 45, "no": 46, "missing": 45 , "children": [
            { "nodeid": 45, "leaf": -0.0748316869 }, 
            { "nodeid": 46, "leaf": 0.187889069 }
          ]}
        ]}, 
        { "nodeid": 12, "depth": 3, "split": "f60", "split_condition": 2.37315817e-05, "yes": 25, "no": 26, "missing": 25 , "children": [
          { "nodeid": 25, "depth": 4, "split": "f112", "split_condition": 0.000812367653, "yes": 47, "no": 48, "missing": 47 , "children": [
            { "nodeid": 47, "depth": 5, "split": "f361", "split_condition": 6.55233691e-07, "yes": 77, "no": 78, "missing": 77 , "children": [
              { "nodeid": 77, "leaf": 0.190606803 }, 
              { "nodeid": 78, "leaf": -0.0643982813 }
            ]}, 
            { "nodeid": 48, "leaf": -0.108985461 }
          ]}, 
          { "nodeid": 26, "depth": 4, "split": "f329", "split_condition": 0.000335520308, "yes": 49, "no": 50, "missing": 49 , "children": [
            { "nodeid": 49, "leaf": -0.119042359 }, 
            { "nodeid": 50, "leaf": 0.17682144 }
          ]}
        ]}
      ]}, 
      { "nodeid": 6, "depth": 2, "split": "f62", "split_condition": 4.20048709e-05, "yes": 13, "no": 14, "missing": 13 , "children": [
        { "nodeid": 13, "depth": 3, "split": "f53", "split_condition": 0.0010768706, "yes": 27, "no": 28, "missing": 27 , "children": [
          { "nodeid": 27, "depth": 4, "split": "f287", "split_condition": 2.56281146e-05, "yes": 51, "no": 52, "missing": 51 , "children": [
            { "nodeid": 51, "depth": 5, "split": "f146", "split_condition": 2.91849824e-06, "yes": 79, "no": 80, "missing": 79 , "children": [
              { "nodeid": 79, "leaf": -0.00946983323 }, 
              { "nodeid": 80, "leaf": -0.11891856 }
            ]}, 
            { "nodeid": 52, "leaf": 0.124592625 }
          ]}, 
          { "nodeid": 28, "depth": 4, "split": "f155", "split_condition": 7.7198878e-05, "yes": 53, "no": 54, "missing": 53 , "children": [
            { "nodeid": 53, "depth": 5, "split": "f48", "split_condition": 2.57679449e-06, "yes": 81, "no": 82, "missing": 81 , "children": [
              { "nodeid": 81, "leaf": 0.26753062 }, 
              { "nodeid": 82, "leaf": -0.0815282539 }
            ]}, 
            { "nodeid": 54, "leaf": -0.100820534 }
          ]}
        ]}, 
        { "nodeid": 14, "depth": 3, "split": "f63", "split_condition": 6.27956342e-06, "yes": 29, "no": 30, "missing": 29 , "children": [
          { "nodeid": 29, "depth": 4, "split": "f27", "split_condition": 0.00840230752, "yes": 55, "no": 56, "missing": 55 , "children": [
            { "nodeid": 55, "leaf": -0.0988533497 }, 
            { "nodeid": 56, "leaf": 0.0255032629 }
          ]}, 
          { "nodeid": 30, "leaf": -0.126132682 }
        ]}
      ]}
    ]}
  ]},
  { "nodeid": 0, "depth": 0, "split": "f54", "split_condition": 7.84349395e-05, "yes": 1, "no": 2, "missing": 1 , "children": [
    { "nodeid": 1, "depth": 1, "split": "f0", "split_condition": 0.212776244, "yes": 3, "no": 4, "missing": 3 , "children": [
      { "nodeid": 3, "depth": 2, "split": "f13", "split_condition": 4.72763131e-05, "yes": 7, "no": 8, "missing": 7 , "children": [
        { "nodeid": 7, "leaf": -0.0851946101 }, 
        { "nodeid": 8, "depth": 3, "split": "f86", "split_condition": 0.168222919, "yes": 15, "no": 16, "missing": 15 , "children": [
          { "nodeid": 15, "depth": 4, "split": "f20", "split_condition": 0.151164353, "yes": 25, "no": 26, "missing": 25 , "children": [
            { "nodeid": 25, "depth": 5, "split": "f49", "split_condition": 5.47467891e-07, "yes": 39, "no": 40, "missing": 39 , "children": [
              { "nodeid": 39, "leaf": 0.0966184139 }, 
              { "nodeid": 40, "leaf": 0.222798511 }
            ]}, 
            { "nodeid": 26, "leaf": -0.0692088977 }
          ]}, 
          { "nodeid": 16, "depth": 4, "split": "f350", "split_condition": 1.71379797e-05, "yes": 27, "no": 28, "missing": 27 , "children": [
            { "nodeid": 27, "depth": 5, "split": "f90", "split_condition": 0.190914243, "yes": 41, "no": 42, "missing": 41 , "children": [
              { "nodeid": 41, "leaf": 0.102236226 }, 
              { "nodeid": 42, "leaf": -0.114119284 }
            ]}, 
            { "nodeid": 28, "leaf": 0.203131959 }
          ]}
        ]}
      ]}, 
      { "nodeid": 4, "depth": 2, "split": "f34", "split_condition": 2.10538474e-06, "yes": 9, "no": 10, "missing": 9 , "children": [
        { "nodeid": 9, "depth": 3, "split": "f45", "split_condition": 9.64923493e-06, "yes": 17, "no": 18, "missing": 17 , "children": [
          { "nodeid": 17, "depth": 4, "split": "f209", "split_condition": 3.56709497e-05, "yes": 29, "no": 30, "missing": 29 , "children": [
            { "nodeid": 29, "depth": 5, "split": "f324", "split_condition": 0.0084123183, "yes": 43, "no": 44, "missing": 43 , "children": [
              { "nodeid": 43, "leaf": 0.195849434 }, 
              { "nodeid": 44, "leaf": -0.0473632105 }
            ]}, 
            { "nodeid": 30, "depth": 5, "split": "f30", "split_condition": 2.93847233e-06, "yes": 45, "no": 46, "missing": 45 , "children": [
              { "nodeid": 45, "leaf": -0.0995827168 }, 
              { "nodeid": 46, "leaf": 0.0239688624 }
            ]}
          ]}, 
          { "nodeid": 18, "depth": 4, "split": "f99", "split_condition": 0.131863251, "yes": 31, "no": 32, "missing": 31 , "children": [
            { "nodeid": 31, "depth": 5, "split": "f315", "split_condition": 3.05354388e-06, "yes": 47, "no": 48, "missing": 47 , "children": [
              { "nodeid": 47, "leaf": -0.118350938 }, 
              { "nodeid": 48, "leaf": 0.0166341439 }
            ]}, 
            { "nodeid": 32, "depth": 5, "split": "f122", "split_condition": 1.06429331e-06, "yes": 49, "no": 50, "missing": 49 , "children": [
              { "nodeid": 49, "leaf": -0.0644993782 }, 
              { "nodeid": 50, "leaf": 0.196678385 }
            ]}
          ]}
        ]}, 
        { "nodeid": 10, "depth": 3, "split": "f100", "split_condition": 0.0354462937, "yes": 19, "no": 20, "missing": 19 , "children": [
          { "nodeid": 19, "depth": 4, "split": "f175", "split_condition": 2.49908157e-06, "yes": 33, "no": 34, "missing": 33 , "children": [
            { "nodeid": 33, "depth": 5, "split": "f87", "split_condition": 3.05444009e-05, "yes": 51, "no": 52, "missing": 51 , "children": [
              { "nodeid": 51, "leaf": -0.0909968391 }, 
              { "nodeid": 52, "leaf": 0.0712699816 }
            ]}, 
            { "nodeid": 34, "depth": 5, "split": "f212", "split_condition": 0.0045184074, "yes": 53, "no": 54, "missing": 53 , "children": [
              { "nodeid": 53, "leaf": 0.199325427 }, 
              { "nodeid": 54, "leaf": 0.0152817359 }
            ]}
          ]}, 
          { "nodeid": 20, "depth": 4, "split": "f322", "split_condition": 9.46524096e-07, "yes": 35, "no": 36, "missing": 35 , "children": [
            { "nodeid": 35, "depth": 5, "split": "f13", "split_condition": 0.00492463447, "yes": 55, "no": 56, "missing": 55 , "children": [
              { "nodeid": 55, "leaf": 0.0928720608 }, 
              { "nodeid": 56, "leaf": -0.0430566445 }
            ]}, 
            { "nodeid": 36, "depth": 5, "split": "f196", "split_condition": 0.0123915812, "yes": 57, "no": 58, "missing": 57 , "children": [
              { "nodeid": 57, "leaf": -0.0685651228 }, 
              { "nodeid": 58, "leaf": 0.125945717 }
            ]}
          ]}
        ]}
      ]}
    ]}, 
    { "nodeid": 2, "depth": 1, "split": "f95", "split_condition": 0.126989692, "yes": 5, "no": 6, "missing": 5 , "children": [
      { "nodeid": 5, "depth": 2, "split": "f2", "split_condition": 0.0192222856, "yes": 11, "no": 12, "missing": 11 , "children": [
        { "nodeid": 11, "depth": 3, "split": "f325", "split_condition": 0.0338823088, "yes": 21, "no": 22, "missing": 21 , "children": [
          { "nodeid": 21, "depth": 4, "split": "f38", "split_condition": 0.0157214291, "yes": 37, "no": 38, "missing": 37 , "children": [
            { "nodeid": 37, "depth": 5, "split": "f126", "split_condition": 0.00397196459, "yes": 59, "no": 60, "missing": 59 , "children": [
              { "nodeid": 59, "leaf": -0.112125911 }, 
              { "nodeid": 60, "leaf": -0.0129770311 }
            ]}, 
            { "nodeid": 38, "depth": 5, "split": "f7", "split_condition": 0.0235918947, "yes": 61, "no": 62, "missing": 61 , "children": [
              { "nodeid": 61, "leaf": 0.024669474 }, 
              { "nodeid": 62, "leaf": 0.10921526 }
            ]}
          ]}, 
          { "nodeid": 22, "leaf": 0.180773854 }
        ]}, 
        { "nodeid": 12, "depth": 3, "split": "f42", "split_condition": 0.000821220572, "yes": 23, "no": 24, "missing": 23 , "children": [
          { "nodeid": 23, "leaf": 0.197047442 }, 
          { "nodeid": 24, "leaf": -0.00231626444 }
        ]}
      ]}, 
      { "nodeid": 6, "depth": 2, "split": "f180", "split_condition": 7.55800374e-06, "yes": 13, "no": 14, "missing": 13 , "children": [
        { "nodeid": 13, "leaf": -0.0804475024 }, 
        { "nodeid": 14, "leaf": 0.200937495 }
      ]}
    ]}
  ]},
  { "nodeid": 0, "depth": 0, "split": "f347", "split_condition": 0.00012687745, "yes": 1, "no": 2, "missing": 1 , "children": [
    { "nodeid": 1, "depth": 1, "split": "f21", "split_condition": 0.0324069932, "yes": 3, "no": 4, "missing": 3 , "children": [
      { "nodeid": 3, "depth": 2, "split": "f13", "split_condition": 0.0635629445, "yes": 7, "no": 8, "missing": 7 , "children": [
        { "nodeid": 7, "depth": 3, "split": "f92", "split_condition": 0.510859728, "yes": 15, "no": 16, "missing": 15 , "children": [
          { "nodeid": 15, "depth": 4, "split": "f248", "split_condition": 4.80542258e-06, "yes": 29, "no": 30, "missing": 29 , "children": [
            { "nodeid": 29, "depth": 5, "split": "f23", "split_condition": 0.179493055, "yes": 43, "no": 44, "missing": 43 , "children": [
              { "nodeid": 43, "leaf": -0.109348357 }, 
              { "nodeid": 44, "leaf": 0.114912204 }
            ]}, 
            { "nodeid": 30, "leaf": 0.120571591 }
          ]}, 
          { "nodeid": 16, "leaf": 0.12100853 }
        ]}, 
        { "nodeid": 8, "leaf": 0.140729323 }
      ]}, 
      { "nodeid": 4, "depth": 2, "split": "f22", "split_condition": 0.010637084, "yes": 9, "no": 10, "missing": 9 , "children": [
        { "nodeid": 9, "depth": 3, "split": "f357", "split_condition": 1.0136157e-06, "yes": 17, "no": 18, "missing": 17 , "children": [
          { "nodeid": 17, "leaf": -0.0957768187 }, 
          { "nodeid": 18, "depth": 4, "split": "f93", "split_condition": 0.130262971, "yes": 31, "no": 32, "missing": 31 , "children": [
            { "nodeid": 31, "leaf": 0.217625067 }, 
            { "nodeid": 32, "leaf": -0.0690029189 }
          ]}
        ]}, 
        { "nodeid": 10, "depth": 3, "split": "f338", "split_condition": 3.66076238e-05, "yes": 19, "no": 20, "missing": 19 , "children": [
          { "nodeid": 19, "depth": 4, "split": "f246", "split_condition": 3.67108369e-05, "yes": 33, "no": 34, "missing": 33 , "children": [
            { "nodeid": 33, "depth": 5, "split": "f19", "split_condition": 0.00399210863, "yes": 45, "no": 46, "missing": 45 , "children": [
              { "nodeid": 45, "leaf": 0.023768222 }, 
              { "nodeid": 46, "leaf": -0.121782459 }
            ]}, 
            { "nodeid": 34, "leaf": 0.0458546728 }
          ]}, 
          { "nodeid": 20, "depth": 4, "split": "f99", "split_condition": 0.197149992, "yes": 35, "no": 36, "missing": 35 , "children": [
            { "nodeid": 35, "depth": 5, "split": "f10", "split_condition": 0.00146071624, "yes": 47, "no": 48, "missing": 47 , "children": [
              { "nodeid": 47, "leaf": 0.0361531973 }, 
              { "nodeid": 48, "leaf": -0.0993271098 }
            ]}, 
            { "nodeid": 36, "depth": 5, "split": "f131", "split_condition": 0.000382082217, "yes": 49, "no": 50, "missing": 49 , "children": [
              { "nodeid": 49, "leaf": 0.235491857 }, 
              { "nodeid": 50, "leaf": 0.0114896093 }
            ]}
          ]}
        ]}
      ]}
    ]}, 
    { "nodeid": 2, "depth": 1, "split": "f138", "split_condition": 3.4538738e-05, "yes": 5, "no": 6, "missing": 5 , "children": [
      { "nodeid": 5, "depth": 2, "split": "f92", "split_condition": 0.138333276, "yes": 11, "no": 12, "missing": 11 , "children": [
        { "nodeid": 11, "depth": 3, "split": "f58", "split_condition": 8.29093042e-05, "yes": 21, "no": 22, "missing": 21 , "children": [
          { "nodeid": 21, "leaf": -0.111620024 }, 
          { "nodeid": 22, "depth": 4, "split": "f57", "split_condition": 4.17555966e-05, "yes": 37, "no": 38, "missing": 37 , "children": [
            { "nodeid": 37, "leaf": 0.199429587 }, 
            { "nodeid": 38, "leaf": -0.0823572576 }
          ]}
        ]}, 
        { "nodeid": 12, "depth": 3, "split": "f517", "split_condition": -8.74403716e-15, "yes": 23, "no": 24, "missing": 23 , "children": [
          { "nodeid": 23, "leaf": -0.0643938705 }, 
          { "nodeid": 24, "depth": 4, "split": "f74", "split_condition": 0.00410368573, "yes": 39, "no": 40, "missing": 39 , "children": [
            { "nodeid": 39, "depth": 5, "split": "f348", "split_condition": 0.000747448823, "yes": 51, "no": 52, "missing": 51 , "children": [
              { "nodeid": 51, "leaf": 0.237887904 }, 
              { "nodeid": 52, "leaf": 0.0793466941 }
            ]}, 
            { "nodeid": 40, "leaf": 0.017403163 }
          ]}
        ]}
      ]}, 
      { "nodeid": 6, "depth": 2, "split": "f79", "split_condition": 1.96796555e-06, "yes": 13, "no": 14, "missing": 13 , "children": [
        { "nodeid": 13, "depth": 3, "split": "f42", "split_condition": 2.79116721e-05, "yes": 25, "no": 26, "missing": 25 , "children": [
          { "nodeid": 25, "leaf": 0.102898657 }, 
          { "nodeid": 26, "leaf": 0.0190506168 }
        ]}, 
        { "nodeid": 14, "depth": 3, "split": "f513", "split_condition": 1.2891162e-06, "yes": 27, "no": 28, "missing": 27 , "children": [
          { "nodeid": 27, "depth": 4, "split": "f113", "split_condition": 0.206958503, "yes": 41, "no": 42, "missing": 41 , "children": [
            { "nodeid": 41, "leaf": -0.120396793 }, 
            { "nodeid": 42, "leaf": 0.0325614102 }
          ]}, 
          { "nodeid": 28, "leaf": 0.035490863 }
        ]}
      ]}
    ]}
  ]},
  { "nodeid": 0, "depth": 0, "split": "f54", "split_condition": 4.96172142e-05, "yes": 1, "no": 2, "missing": 1 , "children": [
    { "nodeid": 1, "depth": 1, "split": "f46", "split_condition": 5.91274802e-05, "yes": 3, "no": 4, "missing": 3 , "children": [
      { "nodeid": 3, "depth": 2, "split": "f53", "split_condition": 0.000121869278, "yes": 7, "no": 8, "missing": 7 , "children": [
        { "nodeid": 7, "depth": 3, "split": "f348", "split_condition": 0.000133571477, "yes": 15, "no": 16, "missing": 15 , "children": [
          { "nodeid": 15, "depth": 4, "split": "f134", "split_condition": 0.0422458425, "yes": 29, "no": 30, "missing": 29 , "children": [
            { "nodeid": 29, "depth": 5, "split": "f90", "split_condition": 0.392399073, "yes": 53, "no": 54, "missing": 53 , "children": [
              { "nodeid": 53, "leaf": -0.115669191 }, 
              { "nodeid": 54, "leaf": 0.0508105271 }
            ]}, 
            { "nodeid": 30, "leaf": 0.0717224106 }
          ]}, 
          { "nodeid": 16, "depth": 4, "split": "f101", "split_condition": 0.00594631396, "yes": 31, "no": 32, "missing": 31 , "children": [
            { "nodeid": 31, "depth": 5, "split": "f99", "split_condition": 0.0298575982, "yes": 55, "no": 56, "missing": 55 , "children": [
              { "nodeid": 55, "leaf": 0.00702893222 }, 
              { "nodeid": 56, "leaf": 0.233888492 }
            ]}, 
            { "nodeid": 32, "depth": 5, "split": "f44", "split_condition": 0.000600292115, "yes": 57, "no": 58, "missing": 57 , "children": [
              { "nodeid": 57, "leaf": -0.112772934 }, 
              { "nodeid": 58, "leaf": 0.0923677459 }
            ]}
          ]}
        ]}, 
        { "nodeid": 8, "depth": 3, "split": "f150", "split_condition": 3.53997484e-06, "yes": 17, "no": 18, "missing": 17 , "children": [
          { "nodeid": 17, "depth": 4, "split": "f83", "split_condition": 0.0664108545, "yes": 33, "no": 34, "missing": 33 , "children": [
            { "nodeid": 33, "leaf": -0.0928542092 }, 
            { "nodeid": 34, "leaf": 0.0173624177 }
          ]}, 
          { "nodeid": 18, "depth": 4, "split": "f70", "split_condition": 0.0062995092, "yes": 35, "no": 36, "missing": 35 , "children": [
            { "nodeid": 35, "leaf": 0.212190822 }, 
            { "nodeid": 36, "leaf": 0.0132662347 }
          ]}
        ]}
      ]}, 
      { "nodeid": 4, "depth": 2, "split": "f28", "split_condition": 0.00165760308, "yes": 9, "no": 10, "missing": 9 , "children": [
        { "nodeid": 9, "depth": 3, "split": "f125", "split_condition": 2.36229935e-05, "yes": 19, "no": 20, "missing": 19 , "children": [
          { "nodeid": 19, "depth": 4, "split": "f185", "split_condition": 3.97629901e-06, "yes": 37, "no": 38, "missing": 37 , "children": [
            { "nodeid": 37, "depth": 5, "split": "f100", "split_condition": 0.146306813, "yes": 59, "no": 60, "missing": 59 , "children": [
              { "nodeid": 59, "leaf": 0.227224693 }, 
              { "nodeid": 60, "leaf": 0.0681383237 }
            ]}, 
            { "nodeid": 38, "leaf": -0.064123787 }
          ]}, 
          { "nodeid": 20, "depth": 4, "split": "f76", "split_condition": 0.0170320664, "yes": 39, "no": 40, "missing": 39 , "children": [
            { "nodeid": 39, "leaf": -0.0989653617 }, 
            { "nodeid": 40, "leaf": 0.0357931517 }
          ]}
        ]}, 
        { "nodeid": 10, "depth": 3, "split": "f108", "split_condition": 0.0111261019, "yes": 21, "no": 22, "missing": 21 , "children": [
          { "nodeid": 21, "depth": 4, "split": "f2", "split_condition": 0.00435487041, "yes": 41, "no": 42, "missing": 41 , "children": [
            { "nodeid": 41, "leaf": 0.188274324 }, 
            { "nodeid": 42, "leaf": -0.0688919947 }
          ]}, 
          { "nodeid": 22, "depth": 4, "split": "f61", "split_condition": 8.23119626e-05, "yes": 43, "no": 44, "missing": 43 , "children": [
            { "nodeid": 43, "depth": 5, "split": "f55", "split_condition": 9.66955995e-05, "yes": 61, "no": 62, "missing": 61 , "children": [
              { "nodeid": 61, "leaf": -0.096894972 }, 
              { "nodeid": 62, "leaf": 0.10673596 }
            ]}, 
            { "nodeid": 44, "leaf": 0.170235708 }
          ]}
        ]}
      ]}
    ]}, 
    { "nodeid": 2, "depth": 1, "split": "f36", "split_condition": 0.00647729123, "yes": 5, "no": 6, "missing": 5 , "children": [
      { "nodeid": 5, "depth": 2, "split": "f2", "split_condition": 0.01845528, "yes": 11, "no": 12, "missing": 11 , "children": [
        { "nodeid": 11, "depth": 3, "split": "f106", "split_condition": 0.291137993, "yes": 23, "no": 24, "missing": 23 , "children": [
          { "nodeid": 23, "depth": 4, "split": "f21", "split_condition": 0.0694075003, "yes": 45, "no": 46, "missing": 45 , "children": [
            { "nodeid": 45, "depth": 5, "split": "f325", "split_condition": 0.0338823088, "yes": 63, "no": 64, "missing": 63 , "children": [
              { "nodeid": 63, "leaf": 0.200877622 }, 
              { "nodeid": 64, "leaf": -0.0747468024 }
            ]}, 
            { "nodeid": 46, "depth": 5, "split": "f38", "split_condition": 0.00244443677, "yes": 65, "no": 66, "missing": 65 , "children": [
              { "nodeid": 65, "leaf": -0.0582191348 }, 
              { "nodeid": 66, "leaf": 0.157059222 }
            ]}
          ]}, 
          { "nodeid": 24, "depth": 4, "split": "f239", "split_condition": 2.35160114e-05, "yes": 47, "no": 48, "missing": 47 , "children": [
            { "nodeid": 47, "depth": 5, "split": "f24", "split_condition": 0.000289567397, "yes": 67, "no": 68, "missing": 67 , "children": [
              { "nodeid": 67, "leaf": 0.179117188 }, 
              { "nodeid": 68, "leaf": -0.072294794 }
            ]}, 
            { "nodeid": 48, "depth": 5, "split": "f342", "split_condition": 1.714686e-05, "yes": 69, "no": 70, "missing": 69 , "children": [
              { "nodeid": 69, "leaf": -0.106295422 }, 
              { "nodeid": 70, "leaf": 0.0133361919 }
            ]}
          ]}
        ]}, 
        { "nodeid": 12, "depth": 3, "split": "f91", "split_condition": 0.148743719, "yes": 25, "no": 26, "missing": 25 , "children": [
          { "nodeid": 25, "leaf": 0.0185088683 }, 
          { "nodeid": 26, "leaf": -0.0936072171 }
        ]}
      ]}, 
      { "nodeid": 6, "depth": 2, "split": "f62", "split_condition": 6.60892401e-05, "yes": 13, "no": 14, "missing": 13 , "children": [
        { "nodeid": 13, "depth": 3, "split": "f47", "split_condition": 0.00153203961, "yes": 27, "no": 28, "missing": 27 , "children": [
          { "nodeid": 27, "depth": 4, "split": "f24", "split_condition": 0.00231125532, "yes": 49, "no": 50, "missing": 49 , "children": [
            { "nodeid": 49, "leaf": -0.12397635 }, 
            { "nodeid": 50, "leaf": 0.0847435519 }
          ]}, 
          { "nodeid": 28, "depth": 4, "split": "f314", "split_condition": 3.48778326e-06, "yes": 51, "no": 52, "missing": 51 , "children": [
            { "nodeid": 51, "depth": 5, "split": "f126", "split_condition": 0.000125536186, "yes": 71, "no": 72, "missing": 71 , "children": [
              { "nodeid": 71, "leaf": 0.21672745 }, 
              { "nodeid": 72, "leaf": -0.06674169 }
            ]}, 
            { "nodeid": 52, "leaf": -0.0930249915 }
          ]}
        ]}, 
        { "nodeid": 14, "leaf": 0.201449513 }
      ]}
    ]}
  ]},
  { "nodeid": 0, "depth": 0, "split": "f47", "split_condition": 2.53393646e-05, "yes": 1, "no": 2, "missing": 1 , "children": [
    { "nodeid": 1, "depth": 1, "split": "f9", "split_condition": 9.78321441e-06, "yes": 3, "no": 4, "missing": 3 , "children": [
      { "nodeid": 3, "depth": 2, "split": "f46", "split_condition": 1.19641882e-05, "yes": 7, "no": 8, "missing": 7 , "children": [
        { "nodeid": 7, "depth": 3, "split": "f108", "split_condition": 0.0572109669, "yes": 15, "no": 16, "missing": 15 , "children": [
          { "nodeid": 15, "depth": 4, "split": "f220", "split_condition": 1.9047955e-05, "yes": 31, "no": 32, "missing": 31 , "children": [
            { "nodeid": 31, "depth": 5, "split": "f12", "split_condition": 0.0062980596, "yes": 55, "no": 56, "missing": 55 , "children": [
              { "nodeid": 55, "leaf": -0.0950518176 }, 
              { "nodeid": 56, "leaf": 0.094791159 }
            ]}, 
            { "nodeid": 32, "depth": 5, "split": "f84", "split_condition": 0.0237602983, "yes": 57, "no": 58, "missing": 57 , "children": [
              { "nodeid": 57, "leaf": -0.05968225 }, 
              { "nodeid": 58, "leaf": 0.1840249 }
            ]}
          ]}, 
          { "nodeid": 16, "depth": 4, "split": "f26", "split_condition": 2.58714863e-06, "yes": 33, "no": 34, "missing": 33 , "children": [
            { "nodeid": 33, "depth": 5, "split": "f94", "split_condition": 0.015481418, "yes": 59, "no": 60, "missing": 59 , "children": [
              { "nodeid": 59, "leaf": -0.106822811 }, 
              { "nodeid": 60, "leaf": 0.089771606 }
            ]}, 
            { "nodeid": 34, "depth": 5, "split": "f349", "split_condition": 1.66039172e-06, "yes": 61, "no": 62, "missing": 61 , "children": [
              { "nodeid": 61, "leaf": 0.207041144 }, 
              { "nodeid": 62, "leaf": -0.0641159937 }
            ]}
          ]}
        ]}, 
        { "nodeid": 8, "depth": 3, "split": "f35", "split_condition": 0.0083708372, "yes": 17, "no": 18, "missing": 17 , "children": [
          { "nodeid": 17, "depth": 4, "split": "f512", "split_condition": 0.00150554255, "yes": 35, "no": 36, "missing": 35 , "children": [
            { "nodeid": 35, "depth": 5, "split": "f362", "split_condition": 4.72518536e-07, "yes": 63, "no": 64, "missing": 63 , "children": [
              { "nodeid": 63, "leaf": 0.185742751 }, 
              { "nodeid": 64, "leaf": -0.0797977075 }
            ]}, 
            { "nodeid": 36, "depth": 5, "split": "f27", "split_condition": 0.0142161287, "yes": 65, "no": 66, "missing": 65 , "children": [
              { "nodeid": 65, "leaf": -0.121934824 }, 
              { "nodeid": 66, "leaf": 0.0145841492 }
            ]}
          ]}, 
          { "nodeid": 18, "leaf": 0.14088425 }
        ]}
      ]}, 
      { "nodeid": 4, "depth": 2, "split": "f154", "split_condition": 0.00484239636, "yes": 9, "no": 10, "missing": 9 , "children": [
        { "nodeid": 9, "depth": 3, "split": "f62", "split_condition": 2.29907928e-05, "yes": 19, "no": 20, "missing": 19 , "children": [
          { "nodeid": 19, "depth": 4, "split": "f355", "split_condition": 6.3167754e-06, "yes": 37, "no": 38, "missing": 37 , "children": [
            { "nodeid": 37, "depth": 5, "split": "f26", "split_condition": 3.32679629e-05, "yes": 67, "no": 68, "missing": 67 , "children": [
              { "nodeid": 67, "leaf": -0.00475143734 }, 
              { "nodeid": 68, "leaf": 0.187822819 }
            ]}, 
            { "nodeid": 38, "depth": 5, "split": "f197", "split_condition": 4.38279094e-05, "yes": 69, "no": 70, "missing": 69 , "children": [
              { "nodeid": 69, "leaf": 0.110217966 }, 
              { "nodeid": 70, "leaf": -0.0812041536 }
            ]}
          ]}, 
          { "nodeid": 20, "depth": 4, "split": "f214", "split_condition": 2.37990043e-05, "yes": 39, "no": 40, "missing": 39 , "children": [
            { "nodeid": 39, "leaf": -0.108001791 }, 
            { "nodeid": 40, "leaf": 0.0285404027 }
          ]}
        ]}, 
        { "nodeid": 10, "depth": 3, "split": "f321", "split_condition": 5.70515658e-06, "yes": 21, "no": 22, "missing": 21 , "children": [
          { "nodeid": 21, "depth": 4, "split": "f267", "split_condition": 0.00013321983, "yes": 41, "no": 42, "missing": 41 , "children": [
            { "nodeid": 41, "depth": 5, "split": "f27", "split_condition": 0.0190601237, "yes": 71, "no": 72, "missing": 71 , "children": [
              { "nodeid": 71, "leaf": -0.0838112012 }, 
              { "nodeid": 72, "leaf": 0.156575426 }
            ]}, 
            { "nodeid": 42, "depth": 5, "split": "f147", "split_condition": 0.11033541, "yes": 73, "no": 74, "missing": 73 , "children": [
              { "nodeid": 73, "leaf": 0.195513502 }, 
              { "nodeid": 74, "leaf": -0.0999704078 }
            ]}
          ]}, 
          { "nodeid": 22, "depth": 4, "split": "f99", "split_condition": 0.0382596105, "yes": 43, "no": 44, "missing": 43 , "children": [
            { "nodeid": 43, "depth": 5, "split": "f13", "split_condition": 0.000202372292, "yes": 75, "no": 76, "missing": 75 , "children": [
              { "nodeid": 75, "leaf": 0.134812996 }, 
              { "nodeid": 76, "leaf": -0.0926154703 }
            ]}, 
            { "nodeid": 44, "depth": 5, "split": "f113", "split_condition": 0.0101844659, "yes": 77, "no": 78, "missing": 77 , "children": [
              { "nodeid": 77, "leaf": 0.154050708 }, 
              { "nodeid": 78, "leaf": -0.11057394 }
            ]}
          ]}
        ]}
      ]}
    ]}, 
    { "nodeid": 2, "depth": 1, "split": "f55", "split_condition": 4.22171288e-05, "yes": 5, "no": 6, "missing": 5 , "children": [
      { "nodeid": 5, "depth": 2, "split": "f118", "split_condition": 0.000388202781, "yes": 11, "no": 12, "missing": 11 , "children": [
        { "nodeid": 11, "depth": 3, "split": "f69", "split_condition": 0.0328527614, "yes": 23, "no": 24, "missing": 23 , "children": [
          { "nodeid": 23, "depth": 4, "split": "f122", "split_condition": 1.6844735e-05, "yes": 45, "no": 46, "missing": 45 , "children": [
            { "nodeid": 45, "depth": 5, "split": "f101", "split_condition": 0.0271109156, "yes": 79, "no": 80, "missing": 79 , "children": [
              { "nodeid": 79, "leaf": -0.110884003 }, 
              { "nodeid": 80, "leaf": 0.106274419 }
            ]}, 
            { "nodeid": 46, "leaf": -0.120205142 }
          ]}, 
          { "nodeid": 24, "leaf": 0.113473736 }
        ]}, 
        { "nodeid": 12, "depth": 3, "split": "f112", "split_condition": 0.000812367653, "yes": 25, "no": 26, "missing": 25 , "children": [
          { "nodeid": 25, "depth": 4, "split": "f60", "split_condition": 2.37315817e-05, "yes": 47, "no": 48, "missing": 47 , "children": [
            { "nodeid": 47, "depth": 5, "split": "f119", "split_condition": 4.39756914e-05, "yes": 81, "no": 82, "missing": 81 , "children": [
              { "nodeid": 81, "leaf": -0.00606976263 }, 
              { "nodeid": 82, "leaf": 0.17482084 }
            ]}, 
            { "nodeid": 48, "depth": 5, "split": "f9", "split_condition": 0.0100686271, "yes": 83, "no": 84, "missing": 83 , "children": [
              { "nodeid": 83, "leaf": -0.111372568 }, 
              { "nodeid": 84, "leaf": 0.157312557 }
            ]}
          ]}, 
          { "nodeid": 26, "leaf": -0.108437262 }
        ]}
      ]}, 
      { "nodeid": 6, "depth": 2, "split": "f62", "split_condition": 4.20048709e-05, "yes": 13, "no": 14, "missing": 13 , "children": [
        { "nodeid": 13, "depth": 3, "split": "f53", "split_condition": 0.0010768706, "yes": 27, "no": 28, "missing": 27 , "children": [
          { "nodeid": 27, "depth": 4, "split": "f22", "split_condition": 0.0324477628, "yes": 49, "no": 50, "missing": 49 , "children": [
            { "nodeid": 49, "depth": 5, "split": "f0", "split_condition": 0.985259175, "yes": 85, "no": 86, "missing": 85 , "children": [
              { "nodeid": 85, "leaf": -0.111014247 }, 
              { "nodeid": 86, "leaf": 0.103322268 }
            ]}, 
            { "nodeid": 50, "depth": 5, "split": "f170", "split_condition": 2.35821494e-06, "yes": 87, "no": 88, "missing": 87 , "children": [
              { "nodeid": 87, "leaf": -0.0658436716 }, 
              { "nodeid": 88, "leaf": 0.14438808 }
            ]}
          ]}, 
          { "nodeid": 28, "depth": 4, "split": "f155", "split_condition": 7.7198878e-05, "yes": 51, "no": 52, "missing": 51 , "children": [
            { "nodeid": 51, "depth": 5, "split": "f105", "split_condition": 0.0534592643, "yes": 89, "no": 90, "missing": 89 , "children": [
              { "nodeid": 89, "leaf": 0.222909927 }, 
              { "nodeid": 90, "leaf": -0.0788305849 }
            ]}, 
            { "nodeid": 52, "leaf": -0.095160991 }
          ]}
        ]}, 
        { "nodeid": 14, "depth": 3, "split": "f122", "split_condition": 3.3512066e-07, "yes": 29, "no": 30, "missing": 29 , "children": [
          { "nodeid": 29, "depth": 4, "split": "f47", "split_condition": 0.00141541776, "yes": 53, "no": 54, "missing": 53 , "children": [
            { "nodeid": 53, "leaf": -0.0926129073 }, 
            { "nodeid": 54, "leaf": 0.0301805381 }
          ]}, 
          { "nodeid": 30, "leaf": -0.121206038 }
        ]}
      ]}
    ]}
  ]},
  { "nodeid": 0, "depth": 0, "split": "f53", "split_condition": 7.5740114e-05, "yes": 1, "no": 2, "missing": 1 , "children": [
    { "nodeid": 1, "depth": 1, "split": "f0", "split_condition": 0.29797256, "yes": 3, "no": 4, "missing": 3 , "children": [
      { "nodeid": 3, "depth": 2, "split": "f33", "split_condition": 0.000788838719, "yes": 7, "no": 8, "missing": 7 , "children": [
        { "nodeid": 7, "depth": 3, "split": "f7", "split_condition": 0.0335542262, "yes": 15, "no": 16, "missing": 15 , "children": [
          { "nodeid": 15, "depth": 4, "split": "f89", "split_condition": 0.134079546, "yes": 29, "no": 30, "missing": 29 , "children": [
            { "nodeid": 29, "depth": 5, "split": "f5", "split_condition": 0.000438590709, "yes": 53, "no": 54, "missing": 53 , "children": [
              { "nodeid": 53, "leaf": -0.087646924 }, 
              { "nodeid": 54, "leaf": 0.121716201 }
            ]}, 
            { "nodeid": 30, "leaf": -0.108585097 }
          ]}, 
          { "nodeid": 16, "depth": 4, "split": "f126", "split_condition": 3.64576699e-05, "yes": 31, "no": 32, "missing": 31 , "children": [
            { "nodeid": 31, "leaf": 0.207487732 }, 
            { "nodeid": 32, "leaf": 0.0626393184 }
          ]}
        ]}, 
        { "nodeid": 8, "depth": 3, "split": "f181", "split_condition": 3.38584432e-05, "yes": 17, "no": 18, "missing": 17 , "children": [
          { "nodeid": 17, "depth": 4, "split": "f244", "split_condition": 1.962432e-05, "yes": 33, "no": 34, "missing": 33 , "children": [
            { "nodeid": 33, "depth": 5, "split": "f42", "split_condition": 1.98937596e-05, "yes": 55, "no": 56, "missing": 55 , "children": [
              { "nodeid": 55, "leaf": 0.0410282314 }, 
              { "nodeid": 56, "leaf": 0.199961007 }
            ]}, 
            { "nodeid": 34, "leaf": -0.0104458285 }
          ]}, 
          { "nodeid": 18, "leaf": -0.00685874606 }
        ]}
      ]}, 
      { "nodeid": 4, "depth": 2, "split": "f17", "split_condition": 3.06324728e-05, "yes": 9, "no": 10, "missing": 9 , "children": [
        { "nodeid": 9, "depth": 3, "split": "f266", "split_condition": 1.79590756e-06, "yes": 19, "no": 20, "missing": 19 , "children": [
          { "nodeid": 19, "depth": 4, "split": "f108", "split_condition": 0.0509671494, "yes": 35, "no": 36, "missing": 35 , "children": [
            { "nodeid": 35, "depth": 5, "split": "f46", "split_condition": 0.000208955462, "yes": 57, "no": 58, "missing": 57 , "children": [
              { "nodeid": 57, "leaf": 0.175289631 }, 
              { "nodeid": 58, "leaf": -0.0749581382 }
            ]}, 
            { "nodeid": 36, "depth": 5, "split": "f91", "split_condition": 0.0491994172, "yes": 59, "no": 60, "missing": 59 , "children": [
              { "nodeid": 59, "leaf": 0.120732211 }, 
              { "nodeid": 60, "leaf": -0.0251753684 }
            ]}
          ]}, 
          { "nodeid": 20, "depth": 4, "split": "f36", "split_condition": 1.91282452e-05, "yes": 37, "no": 38, "missing": 37 , "children": [
            { "nodeid": 37, "depth": 5, "split": "f84", "split_condition": 0.0809458643, "yes": 61, "no": 62, "missing": 61 , "children": [
              { "nodeid": 61, "leaf": 0.119661704 }, 
              { "nodeid": 62, "leaf": -0.0800434127 }
            ]}, 
            { "nodeid": 38, "depth": 5, "split": "f149", "split_condition": 5.11278267e-05, "yes": 63, "no": 64, "missing": 63 , "children": [
              { "nodeid": 63, "leaf": 0.0763970241 }, 
              { "nodeid": 64, "leaf": -0.12179561 }
            ]}
          ]}
        ]}, 
        { "nodeid": 10, "depth": 3, "split": "f100", "split_condition": 0.0360419154, "yes": 21, "no": 22, "missing": 21 , "children": [
          { "nodeid": 21, "depth": 4, "split": "f374", "split_condition": 5.78613026e-07, "yes": 39, "no": 40, "missing": 39 , "children": [
            { "nodeid": 39, "depth": 5, "split": "f99", "split_condition": 0.0158572458, "yes": 65, "no": 66, "missing": 65 , "children": [
              { "nodeid": 65, "leaf": 0.0829290375 }, 
              { "nodeid": 66, "leaf": -0.107927553 }
            ]}, 
            { "nodeid": 40, "depth": 5, "split": "f69", "split_condition": 0.0116146049, "yes": 67, "no": 68, "missing": 67 , "children": [
              { "nodeid": 67, "leaf": 0.147138655 }, 
              { "nodeid": 68, "leaf": -0.0472708903 }
            ]}
          ]}, 
          { "nodeid": 22, "depth": 4, "split": "f310", "split_condition": 2.12041632e-05, "yes": 41, "no": 42, "missing": 41 , "children": [
            { "nodeid": 41, "depth": 5, "split": "f153", "split_condition": 0.000603011809, "yes": 69, "no": 70, "missing": 69 , "children": [
              { "nodeid": 69, "leaf": -0.059997689 }, 
              { "nodeid": 70, "leaf": 0.0391140021 }
            ]}, 
            { "nodeid": 42, "leaf": 0.218082622 }
          ]}
        ]}
      ]}
    ]}, 
    { "nodeid": 2, "depth": 1, "split": "f314", "split_condition": 3.55685688e-06, "yes": 5, "no": 6, "missing": 5 , "children": [
      { "nodeid": 5, "depth": 2, "split": "f102", "split_condition": 0.132884055, "yes": 11, "no": 12, "missing": 11 , "children": [
        { "nodeid": 11, "depth": 3, "split": "f365", "split_condition": 0.000128922678, "yes": 23, "no": 24, "missing": 23 , "children": [
          { "nodeid": 23, "depth": 4, "split": "f55", "split_condition": 1.32097534e-06, "yes": 43, "no": 44, "missing": 43 , "children": [
            { "nodeid": 43, "depth": 5, "split": "f105", "split_condition": 0.021610219, "yes": 71, "no": 72, "missing": 71 , "children": [
              { "nodeid": 71, "leaf": -0.104023293 }, 
              { "nodeid": 72, "leaf": 0.201681837 }
            ]}, 
            { "nodeid": 44, "depth": 5, "split": "f99", "split_condition": 0.434619129, "yes": 73, "no": 74, "missing": 73 , "children": [
              { "nodeid": 73, "leaf": -0.111629181 }, 
              { "nodeid": 74, "leaf": 0.0336400867 }
            ]}
          ]}, 
          { "nodeid": 24, "depth": 4, "split": "f8", "split_condition": 0.000896550831, "yes": 45, "no": 46, "missing": 45 , "children": [
            { "nodeid": 45, "leaf": 0.0250685699 }, 
            { "nodeid": 46, "leaf": 0.177153364 }
          ]}
        ]}, 
        { "nodeid": 12, "depth": 3, "split": "f213", "split_condition": 6.21329355e-06, "yes": 25, "no": 26, "missing": 25 , "children": [
          { "nodeid": 25, "depth": 4, "split": "f62", "split_condition": 4.34140602e-05, "yes": 47, "no": 48, "missing": 47 , "children": [
            { "nodeid": 47, "leaf": 0.182079345 }, 
            { "nodeid": 48, "leaf": 0.0172448009 }
          ]}, 
          { "nodeid": 26, "leaf": -0.0785600469 }
        ]}
      ]}, 
      { "nodeid": 6, "depth": 2, "split": "f63", "split_condition": 0.00011528279, "yes": 13, "no": 14, "missing": 13 , "children": [
        { "nodeid": 13, "depth": 3, "split": "f35", "split_condition": 0.00290601095, "yes": 27, "no": 28, "missing": 27 , "children": [
          { "nodeid": 27, "depth": 4, "split": "f44", "split_condition": 0.000393915339, "yes": 49, "no": 50, "missing": 49 , "children": [
            { "nodeid": 49, "depth": 5, "split": "f34", "split_condition": 0.000143802594, "yes": 75, "no": 76, "missing": 75 , "children": [
              { "nodeid": 75, "leaf": -0.0769008994 }, 
              { "nodeid": 76, "leaf": 0.170856282 }
            ]}, 
            { "nodeid": 50, "leaf": -0.100800052 }
          ]}, 
          { "nodeid": 28, "depth": 4, "split": "f236", "split_condition": 5.1315501e-06, "yes": 51, "no": 52, "missing": 51 , "children": [
            { "nodeid": 51, "depth": 5, "split": "f1", "split_condition": 1.78863775e-05, "yes": 77, "no": 78, "missing": 77 , "children": [
              { "nodeid": 77, "leaf": 0.0958221331 }, 
              { "nodeid": 78, "leaf": -0.069459103 }
            ]}, 
            { "nodeid": 52, "leaf": 0.203723386 }
          ]}
        ]}, 
        { "nodeid": 14, "leaf": -0.107763663 }
      ]}
    ]}
  ]},
  { "nodeid": 0, "depth": 0, "split": "f347", "split_condition": 0.00012687745, "yes": 1, "no": 2, "missing": 1 , "children": [
    { "nodeid": 1, "depth": 1, "split": "f21", "split_condition": 0.0324069932, "yes": 3, "no": 4, "missing": 3 , "children": [
      { "nodeid": 3, "depth": 2, "split": "f13", "split_condition": 0.0635629445, "yes": 7, "no": 8, "missing": 7 , "children": [
        { "nodeid": 7, "depth": 3, "split": "f92", "split_condition": 0.510859728, "yes": 15, "no": 16, "missing": 15 , "children": [
          { "nodeid": 15, "depth": 4, "split": "f223", "split_condition": 0.00820377562, "yes": 29, "no": 30, "missing": 29 , "children": [
            { "nodeid": 29, "depth": 5, "split": "f248", "split_condition": 4.80542258e-06, "yes": 45, "no": 46, "missing": 45 , "children": [
              { "nodeid": 45, "leaf": -0.104331076 }, 
              { "nodeid": 46, "leaf": 0.110805094 }
            ]}, 
            { "nodeid": 30, "leaf": 0.112624399 }
          ]}, 
          { "nodeid": 16, "leaf": 0.112703793 }
        ]}, 
        { "nodeid": 8, "leaf": 0.128536135 }
      ]}, 
      { "nodeid": 4, "depth": 2, "split": "f22", "split_condition": 0.010637084, "yes": 9, "no": 10, "missing": 9 , "children": [
        { "nodeid": 9, "depth": 3, "split": "f357", "split_condition": 1.0136157e-06, "yes": 17, "no": 18, "missing": 17 , "children": [
          { "nodeid": 17, "leaf": -0.0909977704 }, 
          { "nodeid": 18, "depth": 4, "split": "f93", "split_condition": 0.130262971, "yes": 31, "no": 32, "missing": 31 , "children": [
            { "nodeid": 31, "leaf": 0.191994831 }, 
            { "nodeid": 32, "leaf": -0.0646526739 }
          ]}
        ]}, 
        { "nodeid": 10, "depth": 3, "split": "f338", "split_condition": 3.66076238e-05, "yes": 19, "no": 20, "missing": 19 , "children": [
          { "nodeid": 19, "depth": 4, "split": "f13", "split_condition": 0.000971026078, "yes": 33, "no": 34, "missing": 33 , "children": [
            { "nodeid": 33, "leaf": 0.0521514229 }, 
            { "nodeid": 34, "depth": 5, "split": "f260", "split_condition": 0.00151286903, "yes": 47, "no": 48, "missing": 47 , "children": [
              { "nodeid": 47, "leaf": -0.117826186 }, 
              { "nodeid": 48, "leaf": 0.0126745803 }
            ]}
          ]}, 
          { "nodeid": 20, "depth": 4, "split": "f99", "split_condition": 0.197149992, "yes": 35, "no": 36, "missing": 35 , "children": [
            { "nodeid": 35, "depth": 5, "split": "f10", "split_condition": 0.00146071624, "yes": 49, "no": 50, "missing": 49 , "children": [
              { "nodeid": 49, "leaf": 0.0354139358 }, 
              { "nodeid": 50, "leaf": -0.0947593972 }
            ]}, 
            { "nodeid": 36, "depth": 5, "split": "f131", "split_condition": 0.000382082217, "yes": 51, "no": 52, "missing": 51 , "children": [
              { "nodeid": 51, "leaf": 0.207212329 }, 
              { "nodeid": 52, "leaf": 0.0117197921 }
            ]}
          ]}
        ]}
      ]}
    ]}, 
    { "nodeid": 2, "depth": 1, "split": "f95", "split_condition": 1.523022e-05, "yes": 5, "no": 6, "missing": 5 , "children": [
      { "nodeid": 5, "depth": 2, "split": "f92", "split_condition": 0.133653522, "yes": 11, "no": 12, "missing": 11 , "children": [
        { "nodeid": 11, "depth": 3, "split": "f346", "split_condition": 0.000177937269, "yes": 21, "no": 22, "missing": 21 , "children": [
          { "nodeid": 21, "leaf": -0.105787776 }, 
          { "nodeid": 22, "depth": 4, "split": "f15", "split_condition": 8.98763574e-07, "yes": 37, "no": 38, "missing": 37 , "children": [
            { "nodeid": 37, "leaf": 0.0251101796 }, 
            { "nodeid": 38, "leaf": 0.102243237 }
          ]}
        ]}, 
        { "nodeid": 12, "depth": 3, "split": "f97", "split_condition": 0.0133347232, "yes": 23, "no": 24, "missing": 23 , "children": [
          { "nodeid": 23, "depth": 4, "split": "f259", "split_condition": 0.00226764195, "yes": 39, "no": 40, "missing": 39 , "children": [
            { "nodeid": 39, "leaf": 0.214182779 }, 
            { "nodeid": 40, "leaf": 0.0159272142 }
          ]}, 
          { "nodeid": 24, "depth": 4, "split": "f6", "split_condition": 1.72559485e-05, "yes": 41, "no": 42, "missing": 41 , "children": [
            { "nodeid": 41, "leaf": 0.0767421946 }, 
            { "nodeid": 42, "leaf": -0.0639673993 }
          ]}
        ]}
      ]}, 
      { "nodeid": 6, "depth": 2, "split": "f127", "split_condition": 1.06118853e-06, "yes": 13, "no": 14, "missing": 13 , "children": [
        { "nodeid": 13, "depth": 3, "split": "f15", "split_condition": 0.000242612499, "yes": 25, "no": 26, "missing": 25 , "children": [
          { "nodeid": 25, "leaf": 0.0925001949 }, 
          { "nodeid": 26, "leaf": 0.0169519335 }
        ]}, 
        { "nodeid": 14, "depth": 3, "split": "f106", "split_condition": 0.293196619, "yes": 27, "no": 28, "missing": 27 , "children": [
          { "nodeid": 27, "depth": 4, "split": "f330", "split_condition": 0.0114836553, "yes": 43, "no": 44, "missing": 43 , "children": [
            { "nodeid": 43, "depth": 5, "split": "f46", "split_condition": 1.04759431e-06, "yes": 53, "no": 54, "missing": 53 , "children": [
              { "nodeid": 53, "leaf": 0.0292104632 }, 
              { "nodeid": 54, "leaf": -0.11707405 }
            ]}, 
            { "nodeid": 44, "leaf": 0.03057901 }
          ]}, 
          { "nodeid": 28, "leaf": 0.053373605 }
        ]}
      ]}
    ]}
  ]},
  { "nodeid": 0, "depth": 0, "split": "f54", "split_condition": 4.96172142e-05, "yes": 1, "no": 2, "missing": 1 , "children": [
    { "nodeid": 1, "depth": 1, "split": "f46", "split_condition": 5.91274802e-05, "yes": 3, "no": 4, "missing": 3 , "children": [
      { "nodeid": 3, "depth": 2, "split": "f53", "split_condition": 0.000121869278, "yes": 7, "no": 8, "missing": 7 , "children": [
        { "nodeid": 7, "depth": 3, "split": "f38", "split_condition": 8.37430562e-05, "yes": 15, "no": 16, "missing": 15 , "children": [
          { "nodeid": 15, "depth": 4, "split": "f109", "split_condition": 3.3333751e-07, "yes": 31, "no": 32, "missing": 31 , "children": [
            { "nodeid": 31, "depth": 5, "split": "f209", "split_condition": 4.0658615e-05, "yes": 57, "no": 58, "missing": 57 , "children": [
              { "nodeid": 57, "leaf": -0.0960922167 }, 
              { "nodeid": 58, "leaf": 0.207635403 }
            ]}, 
            { "nodeid": 32, "depth": 5, "split": "f91", "split_condition": 0.479897797, "yes": 59, "no": 60, "missing": 59 , "children": [
              { "nodeid": 59, "leaf": -0.116732411 }, 
              { "nodeid": 60, "leaf": 0.0346347429 }
            ]}
          ]}, 
          { "nodeid": 16, "depth": 4, "split": "f26", "split_condition": 2.45598931e-05, "yes": 33, "no": 34, "missing": 33 , "children": [
            { "nodeid": 33, "depth": 5, "split": "f231", "split_condition": 4.20010736e-07, "yes": 61, "no": 62, "missing": 61 , "children": [
              { "nodeid": 61, "leaf": -0.072726272 }, 
              { "nodeid": 62, "leaf": 0.270653635 }
            ]}, 
            { "nodeid": 34, "depth": 5, "split": "f51", "split_condition": 9.14336852e-05, "yes": 63, "no": 64, "missing": 63 , "children": [
              { "nodeid": 63, "leaf": -0.108220398 }, 
              { "nodeid": 64, "leaf": 0.0254981965 }
            ]}
          ]}
        ]}, 
        { "nodeid": 8, "depth": 3, "split": "f164", "split_condition": 1.91464824e-06, "yes": 17, "no": 18, "missing": 17 , "children": [
          { "nodeid": 17, "depth": 4, "split": "f150", "split_condition": 1.95986649e-06, "yes": 35, "no": 36, "missing": 35 , "children": [
            { "nodeid": 35, "leaf": -0.0885124281 }, 
            { "nodeid": 36, "leaf": 0.0162496753 }
          ]}, 
          { "nodeid": 18, "depth": 4, "split": "f60", "split_condition": 8.46373769e-06, "yes": 37, "no": 38, "missing": 37 , "children": [
            { "nodeid": 37, "leaf": 0.0067316629 }, 
            { "nodeid": 38, "leaf": 0.188363463 }
          ]}
        ]}
      ]}, 
      { "nodeid": 4, "depth": 2, "split": "f35", "split_condition": 0.00105758291, "yes": 9, "no": 10, "missing": 9 , "children": [
        { "nodeid": 9, "depth": 3, "split": "f125", "split_condition": 1.64227204e-05, "yes": 19, "no": 20, "missing": 19 , "children": [
          { "nodeid": 19, "depth": 4, "split": "f154", "split_condition": 5.29213867e-05, "yes": 39, "no": 40, "missing": 39 , "children": [
            { "nodeid": 39, "depth": 5, "split": "f62", "split_condition": 7.98900328e-06, "yes": 65, "no": 66, "missing": 65 , "children": [
              { "nodeid": 65, "leaf": -0.0900033042 }, 
              { "nodeid": 66, "leaf": 0.135429233 }
            ]}, 
            { "nodeid": 40, "depth": 5, "split": "f230", "split_condition": 8.2808283e-06, "yes": 67, "no": 68, "missing": 67 , "children": [
              { "nodeid": 67, "leaf": 0.199336857 }, 
              { "nodeid": 68, "leaf": 0.0389452353 }
            ]}
          ]}, 
          { "nodeid": 20, "depth": 4, "split": "f52", "split_condition": 3.53833202e-05, "yes": 41, "no": 42, "missing": 41 , "children": [
            { "nodeid": 41, "depth": 5, "split": "f39", "split_condition": 0.00126796018, "yes": 69, "no": 70, "missing": 69 , "children": [
              { "nodeid": 69, "leaf": -0.107028581 }, 
              { "nodeid": 70, "leaf": 0.0185429789 }
            ]}, 
            { "nodeid": 42, "leaf": 0.212799668 }
          ]}
        ]}, 
